export default [
  {
    "layers": [
      {
        "out_depth": 1,
        "out_sx": 24,
        "out_sy": 24,
        "layer_type": "input"
      },
      {
        "sx": 5,
        "sy": 5,
        "stride": 1,
        "in_depth": 1,
        "out_depth": 8,
        "out_sx": 24,
        "out_sy": 24,
        "layer_type": "conv",
        "l1_decay_mul": 0,
        "l2_decay_mul": 1,
        "pad": 2,
        "filters": [
          {
            "sx": 5,
            "sy": 5,
            "depth": 1,
            "w": {
              "0": 0.209461602240025,
              "1": 0.005306104499063896,
              "2": 0.12925139286097828,
              "3": -0.02140413050364855,
              "4": 0.287476932417529,
              "5": 0.19361389211205407,
              "6": 0.009670668603956538,
              "7": 0.4229421909579741,
              "8": 0.0004724107377395097,
              "9": 0.13952465182307286,
              "10": -0.15874695997558247,
              "11": 0.04364885227231864,
              "12": -0.18024780194652854,
              "13": 0.1366957422360484,
              "14": 0.1022298984208063,
              "15": -0.018017705208610683,
              "16": -0.25906056536851557,
              "17": -0.3483035027872622,
              "18": 0.13879782912854363,
              "19": 0.098746114133578,
              "20": -0.2603886540013502,
              "21": 0.4672891732248931,
              "22": 0.016090011025717145,
              "23": -0.23638675851996097,
              "24": -0.057344562353259534
            }
          },
          {
            "sx": 5,
            "sy": 5,
            "depth": 1,
            "w": {
              "0": -0.129556916513834,
              "1": 0.08706309812844643,
              "2": 0.09197710382769606,
              "3": 0.21576178481145153,
              "4": -0.12542078001573959,
              "5": -0.12782667352616742,
              "6": 0.08494713464076685,
              "7": -0.07094574297245312,
              "8": 0.038791779333472144,
              "9": -0.36243043518269386,
              "10": -0.05593724451154879,
              "11": 0.07797196902930015,
              "12": -0.3620585731144674,
              "13": 0.3423236431044434,
              "14": 0.04071636447600262,
              "15": -0.027518788047205256,
              "16": 0.18093334994905674,
              "17": -0.1336923864239131,
              "18": -0.22856697267920076,
              "19": -0.17612106228150742,
              "20": 0.09357493477974932,
              "21": 0.26439820326980584,
              "22": 0.2947753731212643,
              "23": 0.1642055391230008,
              "24": -0.01991036622085403
            }
          },
          {
            "sx": 5,
            "sy": 5,
            "depth": 1,
            "w": {
              "0": 0.0616301642857717,
              "1": 0.051715563506321206,
              "2": -0.04660735594880553,
              "3": 0.259353695124858,
              "4": -0.02366140283885033,
              "5": -0.015216361192745241,
              "6": 0.04771342768161962,
              "7": -0.1475604392373913,
              "8": -0.05425055138059205,
              "9": 0.08148969651715735,
              "10": -0.1526683314619961,
              "11": -0.0839251187825187,
              "12": -0.0008357102166635458,
              "13": -0.1713369245627595,
              "14": -0.18522742477707627,
              "15": 0.002221917728614397,
              "16": -0.009074497411195825,
              "17": -0.35545036833960497,
              "18": -0.2290146577192369,
              "19": -0.13255755265250332,
              "20": -0.256050712962644,
              "21": 0.3976848595121415,
              "22": -0.026809597842562666,
              "23": 0.035221835461177305,
              "24": -0.15624995461524183
            }
          },
          {
            "sx": 5,
            "sy": 5,
            "depth": 1,
            "w": {
              "0": 0.05322092656495785,
              "1": -0.2581040327817434,
              "2": 0.2105414220118661,
              "3": 0.05690578726312989,
              "4": -0.2630765599316389,
              "5": -0.10128737350343352,
              "6": -0.21126895555813965,
              "7": 0.040443197708783796,
              "8": 0.12195123057039986,
              "9": -0.01593174330551751,
              "10": -0.05434706337912287,
              "11": 0.07077394368254492,
              "12": -0.017509347825216525,
              "13": -0.021084114331464274,
              "14": -0.3543715249965608,
              "15": 0.020487364394000934,
              "16": 0.08956773337279594,
              "17": -0.11972929145777063,
              "18": 0.2503881120956335,
              "19": 0.09801610076147457,
              "20": -0.06081331010269239,
              "21": 0.18686372437463555,
              "22": 0.024725051897088297,
              "23": -0.14958463949007558,
              "24": 0.018098889053335922
            }
          },
          {
            "sx": 5,
            "sy": 5,
            "depth": 1,
            "w": {
              "0": 0.1957616015560287,
              "1": 0.014885788729068733,
              "2": 0.13410352863240693,
              "3": -0.023417924535119126,
              "4": -0.07221270784846227,
              "5": 0.07312067438200696,
              "6": 0.31189979973719734,
              "7": -0.272112663620709,
              "8": -0.03720793921461887,
              "9": -0.022419321110133075,
              "10": 0.16027168711271964,
              "11": -0.2878039153818962,
              "12": 0.23495231709287792,
              "13": 0.03843477380203921,
              "14": -0.2999130719047372,
              "15": 0.08745552902004543,
              "16": -0.12647607118825008,
              "17": 0.1897676629565661,
              "18": 0.2251349699861542,
              "19": -0.07876040674326099,
              "20": -0.08712877596312218,
              "21": 0.2076695305591726,
              "22": -0.11223153823403283,
              "23": -0.2209786129847783,
              "24": 0.06475745854875568
            }
          },
          {
            "sx": 5,
            "sy": 5,
            "depth": 1,
            "w": {
              "0": -0.10682006532080209,
              "1": -0.343916378559985,
              "2": 0.060905317311550106,
              "3": -0.18139784109083745,
              "4": 0.2406673616686891,
              "5": 0.06937052813617328,
              "6": 0.09376370584120619,
              "7": -0.037504388517492375,
              "8": 0.23300152329969032,
              "9": -0.42884072819201874,
              "10": -0.3041235268421487,
              "11": -0.010844695699803219,
              "12": 0.16199402210301508,
              "13": -0.02366012937158593,
              "14": -0.11953740949542124,
              "15": -0.17778327481527445,
              "16": 0.1552371368155804,
              "17": 0.29245103799646094,
              "18": 0.06768245199225474,
              "19": -0.08958487900430667,
              "20": 0.03204096381186359,
              "21": 0.16801536049209467,
              "22": -0.0797314766686216,
              "23": 0.11698132867289833,
              "24": -0.024541108952855488
            }
          },
          {
            "sx": 5,
            "sy": 5,
            "depth": 1,
            "w": {
              "0": -0.07132563573796986,
              "1": -0.09824971292434333,
              "2": -0.13529367168148784,
              "3": 0.13933413077217646,
              "4": 0.07553961930134023,
              "5": -0.26517546938331105,
              "6": 0.0051687104458114745,
              "7": -0.014540392252225308,
              "8": 0.16981320425787902,
              "9": -0.0921387102375552,
              "10": -0.38231373250185946,
              "11": -0.04128262223580198,
              "12": 0.4000437322809933,
              "13": -0.2850834050344428,
              "14": -0.30662730428968477,
              "15": 0.05108161286743201,
              "16": 0.12879960900690546,
              "17": -0.17623485341307646,
              "18": -0.14209978283439179,
              "19": -0.07938093381777864,
              "20": 0.047650638385359614,
              "21": -0.15680531677940596,
              "22": -0.12431585416984088,
              "23": -0.21624467120394644,
              "24": 0.08534237922244632
            }
          },
          {
            "sx": 5,
            "sy": 5,
            "depth": 1,
            "w": {
              "0": -0.14785241807631133,
              "1": -0.19878632907971283,
              "2": 0.06937594349243058,
              "3": 0.2263402091146102,
              "4": -0.08129788444942433,
              "5": 0.1503497508171215,
              "6": 0.02359976906230584,
              "7": 0.13614125557573525,
              "8": -0.009396859599569825,
              "9": -0.05455835813979795,
              "10": 0.05373415081941995,
              "11": 0.0465841363967785,
              "12": -0.37030480991247633,
              "13": 0.6066510261014074,
              "14": -0.1362254108938946,
              "15": 0.11510786421820077,
              "16": 0.1660701525353245,
              "17": 0.09408141023205091,
              "18": 0.35901075297946883,
              "19": -0.10236061310398684,
              "20": -0.017129218918447996,
              "21": 0.2653626913846023,
              "22": 0.10345414790056794,
              "23": 0.26980135768781494,
              "24": 0.05079505709184998
            }
          }
        ],
        "biases": {
          "sx": 1,
          "sy": 1,
          "depth": 8,
          "w": {
            "0": 0.1,
            "1": 0.1,
            "2": 0.1,
            "3": 0.1,
            "4": 0.1,
            "5": 0.1,
            "6": 0.1,
            "7": 0.1
          }
        }
      },
      {
        "out_depth": 8,
        "out_sx": 24,
        "out_sy": 24,
        "layer_type": "relu"
      },
      {
        "sx": 2,
        "sy": 2,
        "stride": 2,
        "in_depth": 8,
        "out_depth": 8,
        "out_sx": 12,
        "out_sy": 12,
        "layer_type": "pool",
        "pad": 0
      },
      {
        "sx": 5,
        "sy": 5,
        "stride": 1,
        "in_depth": 8,
        "out_depth": 16,
        "out_sx": 12,
        "out_sy": 12,
        "layer_type": "conv",
        "l1_decay_mul": 0,
        "l2_decay_mul": 1,
        "pad": 2,
        "filters": [
          {
            "sx": 5,
            "sy": 5,
            "depth": 8,
            "w": {
              "0": -0.0545792248086897,
              "1": 0.07866278869390514,
              "2": 0.025883408931022256,
              "3": 0.029566976787881838,
              "4": 0.0622455708905975,
              "5": 0.04756020997283666,
              "6": -0.06696441832080635,
              "7": -0.12866626532772535,
              "8": 0.06602129566788212,
              "9": -0.07487437637623112,
              "10": -0.07091585698623004,
              "11": -0.07764577960811103,
              "12": -0.017997891125690776,
              "13": -0.06848293460951185,
              "14": 0.04240413695746324,
              "15": -0.10942732424353757,
              "16": -0.02488314581509162,
              "17": -0.004750910210042464,
              "18": -0.09468755444772975,
              "19": 0.08233076357136686,
              "20": -0.004544660600840647,
              "21": 0.09609269533007188,
              "22": -0.022017559663065362,
              "23": 0.08558592143818669,
              "24": 0.16042918348048876,
              "25": 0.11946795925111146,
              "26": 0.0561451014379597,
              "27": -0.030493295826828713,
              "28": 0.05927885958782174,
              "29": -0.06685375648400124,
              "30": 0.011934662189037581,
              "31": 0.07627341616776297,
              "32": -0.0020900206332474624,
              "33": 0.036434029547360976,
              "34": -0.05746872426970571,
              "35": -0.07464660364461477,
              "36": 0.04208497414372656,
              "37": -0.024198351198765306,
              "38": 0.0049928631142329835,
              "39": -0.05997604127532285,
              "40": 0.05993050417110347,
              "41": 0.025859924154420892,
              "42": -0.007016683406840964,
              "43": -0.0885768287051338,
              "44": 0.030685654994684952,
              "45": -0.08840004736812868,
              "46": 0.008075915543352453,
              "47": 0.040537562845715844,
              "48": 0.02665816654319724,
              "49": -0.032636052037564436,
              "50": 0.03558397320718225,
              "51": -0.1180728250604292,
              "52": -0.014671684582452146,
              "53": 0.050307175153961874,
              "54": 0.09372128873470179,
              "55": 0.033441391586773124,
              "56": -0.13083287674890778,
              "57": 0.007248851946400198,
              "58": -0.18830930840792137,
              "59": 0.06380809189881936,
              "60": 0.09347173111963732,
              "61": 0.09430838864108246,
              "62": -0.17807393789928105,
              "63": 0.02631434338710742,
              "64": -0.07424835578692228,
              "65": -0.0017105128897820262,
              "66": 0.08665558683837078,
              "67": -0.05828780893300123,
              "68": -0.07522324347729606,
              "69": -0.04818775858254182,
              "70": 0.007434444037631444,
              "71": -0.04877473432366846,
              "72": 0.030271937695652673,
              "73": 0.012892869477808053,
              "74": 0.0699653820718737,
              "75": 0.009546955676037038,
              "76": -0.06060982494673177,
              "77": 0.12737257687205736,
              "78": 0.025494785624660583,
              "79": 0.02455096042231518,
              "80": -0.01815763259948941,
              "81": 0.053418677914875264,
              "82": 0.05704370067579087,
              "83": 0.0018057766687469374,
              "84": -0.023065745421573376,
              "85": 0.07010219844459646,
              "86": -0.12703767757332884,
              "87": -0.03370707096239735,
              "88": 0.02210009707533384,
              "89": 0.011224743077976454,
              "90": 0.02115497723402088,
              "91": 0.07630647440427926,
              "92": -0.03363403984857215,
              "93": 0.026705618664623267,
              "94": -0.039972973187237505,
              "95": 0.04366665322021507,
              "96": 0.09110806487115634,
              "97": 0.07018330033608774,
              "98": -0.009672201872189904,
              "99": -0.10509920432049882,
              "100": -0.040790359173921514,
              "101": 0.02623517418742425,
              "102": 0.044830788963946516,
              "103": -0.06007013785328878,
              "104": 0.1110747377831659,
              "105": -0.08211109385995584,
              "106": 0.07512957615689762,
              "107": -0.06254719811131429,
              "108": 0.03688294991048795,
              "109": 0.007792042693244065,
              "110": -0.1382472872839358,
              "111": 0.09070228970751638,
              "112": 0.0421673991305623,
              "113": 0.10612070892361178,
              "114": -0.03809439909610189,
              "115": 0.07539235953502728,
              "116": -0.03494880622877698,
              "117": 0.03364481606294008,
              "118": 0.137297072026428,
              "119": -0.017514409624001224,
              "120": -0.1524132756896146,
              "121": 0.049304867039236526,
              "122": -0.05120547679670138,
              "123": 0.08411766058540983,
              "124": -0.06764937249502058,
              "125": -0.04891847510085487,
              "126": -0.07524814733533328,
              "127": -0.015534015765533999,
              "128": 0.07973368289590242,
              "129": -0.03521455957220347,
              "130": -0.06288806841150434,
              "131": -0.08695748539520465,
              "132": 0.19577230019098557,
              "133": 0.006955285424323423,
              "134": -0.03341556047851734,
              "135": 0.02015193347138546,
              "136": 0.17226262886007884,
              "137": -0.019786508325133192,
              "138": -0.10137146990876887,
              "139": 0.05038078429428079,
              "140": -0.03361488771611343,
              "141": 0.00970313139822038,
              "142": -0.0083067927846587,
              "143": -0.10678864281433911,
              "144": -0.018616455174309314,
              "145": 0.10456233719138819,
              "146": 0.029739100304619497,
              "147": 0.048496237410567744,
              "148": 0.06802269279300668,
              "149": -0.02048379706530951,
              "150": 0.0230089600990419,
              "151": -0.032720618624038654,
              "152": -0.17205409240492,
              "153": 0.040255146475007275,
              "154": 0.17905537120167872,
              "155": -0.006368084748003385,
              "156": -0.05280346207437066,
              "157": 0.13356329844922454,
              "158": -0.014505987199390676,
              "159": -0.0030611004356918777,
              "160": -0.03553385796207901,
              "161": -0.05535314573519646,
              "162": 0.08009904368473054,
              "163": 0.02460877912579408,
              "164": 0.03186361343832215,
              "165": 0.0330957281454056,
              "166": -0.024843624182007078,
              "167": 0.05186205937638047,
              "168": -0.12090347183726347,
              "169": 0.010849016163692464,
              "170": 0.0015973266196997239,
              "171": -0.06790499028978286,
              "172": 0.030953771664665067,
              "173": 0.030163292825740023,
              "174": 0.010670671737771784,
              "175": 0.020154597730453364,
              "176": -0.09447228154838437,
              "177": -0.09592132697779927,
              "178": 0.08426635328928868,
              "179": -0.15707117144388816,
              "180": -0.1863628417300075,
              "181": -0.09862551063546203,
              "182": 0.021189266661397775,
              "183": -0.08689145667129565,
              "184": 0.11887233802220411,
              "185": -0.18728965801461475,
              "186": -0.09525587115462708,
              "187": -0.007041072929133386,
              "188": -0.07906784091423846,
              "189": -0.01614587042538713,
              "190": -0.048387210259250885,
              "191": -0.08433289830892092,
              "192": -0.01893299983635751,
              "193": 0.03342392788181781,
              "194": -0.01428738334665063,
              "195": 0.08379373872226152,
              "196": 0.02124899234103181,
              "197": 0.05287558419529671,
              "198": 0.013518258767451817,
              "199": 0.07727460532373656
            }
          },
          {
            "sx": 5,
            "sy": 5,
            "depth": 8,
            "w": {
              "0": -0.022547327988027888,
              "1": -0.05328347252226313,
              "2": -0.06788979390814424,
              "3": -0.056149525868987096,
              "4": -0.13715818520189757,
              "5": 0.055769951594089255,
              "6": -0.08468000496207269,
              "7": 0.0020137007415999305,
              "8": 0.005602410563635739,
              "9": -0.012543698922503049,
              "10": -0.03442619764990051,
              "11": -0.025175197530391966,
              "12": -0.035569505965412904,
              "13": -0.08862136939658319,
              "14": -0.08856979236364063,
              "15": -0.0661835507365774,
              "16": 0.0968740514449358,
              "17": -0.034456056993218735,
              "18": 0.025834403661599975,
              "19": -0.028475173052441283,
              "20": 0.06637609429779522,
              "21": 0.06286575912992778,
              "22": -0.06744381288416133,
              "23": 0.0835999900546073,
              "24": -0.014550524923797666,
              "25": 0.027930897669204445,
              "26": -0.02125054471475331,
              "27": -0.0017368988091832393,
              "28": -0.015973786043293286,
              "29": -0.014848289906626361,
              "30": 0.13509727569051522,
              "31": 0.006219150388816356,
              "32": -0.001897521265123443,
              "33": -0.052062907848411014,
              "34": -0.00723449016008651,
              "35": -0.03230904931325819,
              "36": 0.0028762274406531245,
              "37": 0.013223033401205836,
              "38": -0.021600301892054148,
              "39": -0.10256176670398788,
              "40": -0.10200200556755712,
              "41": 0.02151835777447614,
              "42": -0.03215780382241414,
              "43": 0.07935444916510472,
              "44": -0.039526476783552096,
              "45": 0.021950080342252536,
              "46": 0.02988561857783206,
              "47": -0.06228513534894116,
              "48": -0.03385661859574574,
              "49": -0.005527897518339498,
              "50": 0.06786179726525599,
              "51": 0.02582560813997211,
              "52": -0.043347073683515036,
              "53": 0.06242684187553611,
              "54": 0.0584356972977044,
              "55": -0.10032793335887608,
              "56": 0.11634044574513734,
              "57": 0.06769504239374105,
              "58": -0.025655425192411523,
              "59": -0.09318015606930809,
              "60": 0.09880927736682663,
              "61": 0.05454896456902455,
              "62": 0.06408848837061543,
              "63": 0.09097044063944373,
              "64": 0.01607299188006915,
              "65": 0.166234562948321,
              "66": -0.015270028347908271,
              "67": 0.0786838673537311,
              "68": -0.13602546005065894,
              "69": -0.06689598179239796,
              "70": -0.07740381183222639,
              "71": -0.021225642109794773,
              "72": -0.05515352721939196,
              "73": 0.040446028444526105,
              "74": -0.017635469360777138,
              "75": 0.09327294137601304,
              "76": -0.04437256643555241,
              "77": 0.07239152385374692,
              "78": 0.0012066350404379125,
              "79": 0.01838020818999222,
              "80": -0.006127432929602057,
              "81": -0.07179745940047234,
              "82": -0.16567945180581978,
              "83": 0.036840125579996656,
              "84": -0.096971841213915,
              "85": 0.05814699196589695,
              "86": 0.15638648589970044,
              "87": -0.02457126510143039,
              "88": 0.08372011808469483,
              "89": -0.11150439438580564,
              "90": 0.07210617689937557,
              "91": 0.10281952287612758,
              "92": -0.023519124568722637,
              "93": -0.08643953145957885,
              "94": 0.02117694602452313,
              "95": 0.07399559939647367,
              "96": 0.045807458488427696,
              "97": -0.08507530117260577,
              "98": 0.0425991816735561,
              "99": -0.10113694553097659,
              "100": 0.011588062680765057,
              "101": -0.03724275839141673,
              "102": 0.022442880163230004,
              "103": 0.05104436436411278,
              "104": 0.033966000241480325,
              "105": 0.020025215957461904,
              "106": 0.02254840960408707,
              "107": 0.06449660708380867,
              "108": 0.06162122728204481,
              "109": -0.0977738120246006,
              "110": 0.015980693818060505,
              "111": 0.06070336886216917,
              "112": 0.16830601734164988,
              "113": 0.10627468603701015,
              "114": 0.04868038493603856,
              "115": -0.03812501946436992,
              "116": 0.03346360446835885,
              "117": 0.09050485282984165,
              "118": 0.03314377551302033,
              "119": -0.1268261365403483,
              "120": 0.17269429497819255,
              "121": 0.0406772363859886,
              "122": 0.02635934496686601,
              "123": -0.07171608354341767,
              "124": -0.05696827219153947,
              "125": 0.06588719335430486,
              "126": 0.08773412003062375,
              "127": 0.09525396715580099,
              "128": 0.07308743543471774,
              "129": -0.03696245960519761,
              "130": -0.01978873798238549,
              "131": 0.06332046774832768,
              "132": 0.09535140060612488,
              "133": -0.012377207445956733,
              "134": 0.08261745278484803,
              "135": -0.04487498547078759,
              "136": -0.015502977509704178,
              "137": -0.03054676265313728,
              "138": 0.09664209839545998,
              "139": -0.02412267238270733,
              "140": 0.009800555387856137,
              "141": 0.12504229878453105,
              "142": -0.0965736106249002,
              "143": -0.026483538547587913,
              "144": -0.06978617360449857,
              "145": 0.12610668693985821,
              "146": -0.056147065396327675,
              "147": 0.09477095760274068,
              "148": -0.02072279167736856,
              "149": -0.06662557969866094,
              "150": 0.04617531923154673,
              "151": 0.028291057660658175,
              "152": 0.07321978267782782,
              "153": -0.07586065008789043,
              "154": -0.02403857074324997,
              "155": 0.049197604409357214,
              "156": -0.043980401584599454,
              "157": 0.05866307454874878,
              "158": -0.06767262239606847,
              "159": 0.14475020979522304,
              "160": -0.040295626168604874,
              "161": -0.10657934449805057,
              "162": 0.014181379281645855,
              "163": 0.022328547216831352,
              "164": -0.07105152316928356,
              "165": 0.06683141467269615,
              "166": -0.08473970925884382,
              "167": 0.16983513806134945,
              "168": -0.022932306601154955,
              "169": -0.0919077244120311,
              "170": -0.11952611984315172,
              "171": -0.10367233296160318,
              "172": 0.03431140533223187,
              "173": 0.012292291002116852,
              "174": -0.05272729498409053,
              "175": 0.05046373091035891,
              "176": 0.10025356903510613,
              "177": 0.013299034689373828,
              "178": -0.014888225937874897,
              "179": 0.15564864428019037,
              "180": -0.03817767622277249,
              "181": 0.050925617707506685,
              "182": -0.02176050932652098,
              "183": 0.01246754565882662,
              "184": 0.021757184737038124,
              "185": 0.016192694767052176,
              "186": -0.003032694892611591,
              "187": 0.0673480421365251,
              "188": -0.03775529672387798,
              "189": -0.052636093348479136,
              "190": 0.12996165260119744,
              "191": -0.11452773019635226,
              "192": 0.014720559492303815,
              "193": -0.07848535933209035,
              "194": 0.021732120875929843,
              "195": -0.013143348219041609,
              "196": 0.0028532946945032966,
              "197": -0.057751662586570614,
              "198": 0.08757693158803619,
              "199": -0.02624365509626633
            }
          },
          {
            "sx": 5,
            "sy": 5,
            "depth": 8,
            "w": {
              "0": -0.010725748443489327,
              "1": 0.06414218742253769,
              "2": 0.013890558516000726,
              "3": -0.07179553681323164,
              "4": 0.07097434245681253,
              "5": -0.08503483268732917,
              "6": -0.0030222729993052214,
              "7": -0.06578384185104198,
              "8": -0.06430752222249776,
              "9": 0.15359024815063102,
              "10": -0.06812576632089552,
              "11": -0.09459091457246252,
              "12": -0.12778640489353196,
              "13": 0.06478373058215917,
              "14": 0.04994269604644861,
              "15": 0.18080922422459164,
              "16": 0.004776874253481667,
              "17": 0.1212707376598352,
              "18": 0.07567493909893275,
              "19": 0.09109820033253385,
              "20": 0.025998592520654864,
              "21": -0.05171616761529556,
              "22": 0.09389407087076393,
              "23": 0.030928903337004144,
              "24": -0.053390933718413365,
              "25": -0.08228411524614164,
              "26": 0.11247323860389055,
              "27": -0.15369890102200912,
              "28": -0.0925438108665495,
              "29": -0.11161375643850101,
              "30": -0.051882093165806636,
              "31": -0.03616835764158252,
              "32": 0.019117359185310878,
              "33": -0.08894073251525841,
              "34": 0.08783761774560654,
              "35": -0.07293248881966609,
              "36": 0.011022521945571195,
              "37": 0.0974543940936286,
              "38": 0.09102520822397467,
              "39": -0.061290890378479505,
              "40": 0.08260061684210779,
              "41": -0.019563687665314626,
              "42": 0.09083597112797454,
              "43": 0.02787100093357822,
              "44": -0.1470324750291172,
              "45": -0.031702576571742656,
              "46": 0.04352922343563482,
              "47": -0.05266710684403929,
              "48": -0.13195026784757194,
              "49": -0.04109676384360949,
              "50": -0.020027335605592163,
              "51": 0.03289629901672595,
              "52": 0.022787741516269285,
              "53": 0.12307581385882627,
              "54": -0.16130499595551628,
              "55": 0.030678068378756723,
              "56": 0.006145436721950727,
              "57": -0.13703269472358698,
              "58": 0.00829410401354575,
              "59": -0.03127721944979421,
              "60": -0.07762984776262163,
              "61": 0.06067173627855984,
              "62": 0.0852786845681081,
              "63": -0.04226172739325094,
              "64": -0.0022232202322894834,
              "65": -0.0033172526050613146,
              "66": -0.11204716759352118,
              "67": -0.011799829650878007,
              "68": 0.0489472766334469,
              "69": 0.06739707276880803,
              "70": -0.010889801827257194,
              "71": 0.008841389242767554,
              "72": -0.0802656797672463,
              "73": -0.03287122542204199,
              "74": -0.03565327705776507,
              "75": -0.1622597378030251,
              "76": -0.09562917779179791,
              "77": -0.041215832513412744,
              "78": -0.017810924871420976,
              "79": 0.11944810569493174,
              "80": 0.10618799992234335,
              "81": 0.029342844180019922,
              "82": -0.07029772831296673,
              "83": -0.019659250495106903,
              "84": -0.10334618360339522,
              "85": -0.036334270629962015,
              "86": 0.013314842810850379,
              "87": -0.0029054575254130544,
              "88": 0.0066797819190973756,
              "89": 0.05490391001079628,
              "90": 0.05701018729536228,
              "91": -0.10390894385372068,
              "92": -0.09296033545440854,
              "93": -0.13857936491504413,
              "94": 0.04189538414267614,
              "95": 0.03348252060649017,
              "96": -0.06329254536598614,
              "97": 0.1318912373066624,
              "98": -0.0471973343391604,
              "99": -0.07278090267728823,
              "100": -0.03116524173022665,
              "101": 0.014632434913302867,
              "102": -0.061654434146276874,
              "103": 0.025892786949062722,
              "104": -0.04636196870635845,
              "105": -0.03690550278877416,
              "106": -0.09754332770378946,
              "107": -0.10426665845795667,
              "108": -0.014831467007657556,
              "109": 0.026929283348988666,
              "110": 0.02296882449715707,
              "111": -0.0742433050002402,
              "112": -0.07913132230180872,
              "113": 0.029134976987140824,
              "114": -0.19585479283603155,
              "115": -0.09971044198866472,
              "116": 0.03024017581228058,
              "117": 0.11934831150838811,
              "118": -0.0011146780012639829,
              "119": -0.07840083994136358,
              "120": 0.05674787091414103,
              "121": 0.06706814195869668,
              "122": 0.07815441723916008,
              "123": -0.0006655610294016578,
              "124": -0.047413218932029585,
              "125": 0.03212469467294695,
              "126": 0.12176145239705975,
              "127": 0.03552978995243838,
              "128": -0.13407796768757158,
              "129": -0.11615062402900962,
              "130": 0.0393430337119875,
              "131": -0.07262066908224656,
              "132": -0.02638761239268429,
              "133": -0.042152615042599234,
              "134": -0.07586769947488853,
              "135": -0.0020007917189310697,
              "136": -0.061774527169790185,
              "137": 0.06292041491494667,
              "138": 0.0163851103436214,
              "139": -0.06255726976281867,
              "140": 0.06565754314696594,
              "141": -0.0051256515685703195,
              "142": -0.06998316591196091,
              "143": -0.15376506615212843,
              "144": 0.07568616625162836,
              "145": 0.024256608790073023,
              "146": -0.057996918464849216,
              "147": 0.031224442800299745,
              "148": 0.006498048294600666,
              "149": 0.0953030427192519,
              "150": -0.08527486293436054,
              "151": -0.06654726461348762,
              "152": -0.01829316729306075,
              "153": 0.05801453512323843,
              "154": -0.02531705126557584,
              "155": 0.05873943502757363,
              "156": -0.009350319559246622,
              "157": 0.12946343738856714,
              "158": 0.025113208314658412,
              "159": -0.06896265419085454,
              "160": -0.06296298482392042,
              "161": 0.20439212891312758,
              "162": 0.012994021907048882,
              "163": 0.07296083646251136,
              "164": 0.027145659289856926,
              "165": 0.03217927371709192,
              "166": 0.0004233010490965944,
              "167": 0.06034974550955948,
              "168": -0.0002880043836584326,
              "169": -0.06452671554887214,
              "170": -0.001625912459597142,
              "171": -0.008659503044973316,
              "172": 0.13526173467046804,
              "173": -0.06944752422431237,
              "174": 0.035337887895230534,
              "175": -0.03551320102788849,
              "176": -0.061341979653410005,
              "177": -0.04472751321837864,
              "178": 0.10549842681509368,
              "179": -0.022767109305587504,
              "180": 0.06654082276826742,
              "181": -0.0853263936120437,
              "182": 0.057994709743396225,
              "183": 0.058919307403747186,
              "184": 0.11464989969217225,
              "185": -0.15010921192007157,
              "186": -0.05208601623331514,
              "187": 0.009957948210520198,
              "188": -0.15329151693983833,
              "189": 0.0562955394626864,
              "190": -0.07560353938922348,
              "191": 0.07889746293130037,
              "192": -0.11612609425065851,
              "193": 0.036714977519026165,
              "194": -0.022710172485420035,
              "195": 0.13533125821696876,
              "196": -0.020396611107777785,
              "197": -0.13890051514565485,
              "198": 0.005465583725502637,
              "199": -0.023094625380112328
            }
          },
          {
            "sx": 5,
            "sy": 5,
            "depth": 8,
            "w": {
              "0": 0.08457952924454407,
              "1": 0.038110406826324356,
              "2": -0.03642233895548011,
              "3": 0.03853942505217784,
              "4": -0.060603750985322294,
              "5": -0.04391082660330855,
              "6": 0.004757283551347373,
              "7": -0.04540059756034072,
              "8": 0.02210889462589674,
              "9": 0.06589385241845065,
              "10": 0.10375029826421325,
              "11": -0.0223158465023695,
              "12": 0.0033990721496368137,
              "13": 0.0443727775563503,
              "14": 0.02531171698643677,
              "15": 0.04474647144387465,
              "16": -0.05067266887358225,
              "17": 0.05267170552254397,
              "18": 0.03812345914320751,
              "19": -0.00940233143668273,
              "20": -0.022254446435083494,
              "21": -0.08181546408128981,
              "22": 0.001431794354879997,
              "23": -0.043125457190028145,
              "24": -0.07921636733286339,
              "25": -0.04093783975776387,
              "26": 0.02779332767642375,
              "27": 0.006134930492029062,
              "28": -0.05983232957225966,
              "29": -0.039758065405000716,
              "30": 0.010721614267677475,
              "31": 0.029525323864732285,
              "32": 0.09379765191516981,
              "33": 0.030362742123623977,
              "34": -0.10649337459581826,
              "35": 0.049690747451362295,
              "36": -0.010773111828426817,
              "37": -0.0318702643615167,
              "38": -0.019258105483928516,
              "39": 0.028346182066366906,
              "40": -0.26825574802484004,
              "41": 0.12351920464657681,
              "42": -0.010771555504575536,
              "43": 0.05698080743821428,
              "44": -0.06077696150509742,
              "45": -0.036792928970144266,
              "46": 0.07316457735972462,
              "47": 0.014879388923487048,
              "48": -0.007983538653691129,
              "49": -0.05658539446524887,
              "50": -0.025469148784771786,
              "51": -0.13759210870521657,
              "52": -0.1119786350713022,
              "53": -0.12693086070283047,
              "54": 0.13388720711505056,
              "55": 0.027284702567643444,
              "56": 0.08569076571815225,
              "57": -0.07994455985028495,
              "58": -0.1446116085290912,
              "59": -0.1542935418837073,
              "60": -0.11548564181614365,
              "61": 0.181179554111094,
              "62": 0.031615049334884876,
              "63": 0.043799033661327404,
              "64": 0.0946400819208589,
              "65": 0.06255047207155279,
              "66": 0.0013266698958784118,
              "67": 0.0899144401908363,
              "68": 0.036499777111541946,
              "69": -0.06951710712774847,
              "70": 0.06814517932555406,
              "71": -0.04258477021618047,
              "72": -0.12671807697585244,
              "73": 0.005324131544573054,
              "74": -0.019401955246176574,
              "75": -0.05086389844633143,
              "76": 0.0202126617854179,
              "77": -0.14062268854985777,
              "78": -0.01770584326205034,
              "79": -0.02266348125289386,
              "80": 0.03423901341359057,
              "81": -0.0266480834758271,
              "82": -0.04624647336694571,
              "83": -0.03765171476393585,
              "84": -0.02420391799277208,
              "85": 0.051024297458800945,
              "86": 0.08165063696773975,
              "87": 0.05538924788755827,
              "88": 0.012020890877127812,
              "89": 0.12406583803525223,
              "90": 0.0793036241479442,
              "91": 0.09608812255022513,
              "92": -0.03417892478786046,
              "93": -0.051931904883812545,
              "94": -0.07046645211118868,
              "95": -0.10016555973863193,
              "96": -0.0608808581073429,
              "97": 0.07812704371252915,
              "98": -0.026895762419413962,
              "99": -0.10614804716471905,
              "100": 0.11047740305362654,
              "101": -0.022842723068992498,
              "102": -0.07603020813106097,
              "103": -0.01625676413127124,
              "104": 0.01756151796765674,
              "105": 0.08831690588472496,
              "106": 0.002199239342717487,
              "107": 0.08613271202303109,
              "108": -0.07211560081719316,
              "109": 0.0018206157628123884,
              "110": -0.029829517691672067,
              "111": 0.10874938210175966,
              "112": -0.10174974358829066,
              "113": -0.06075903797176244,
              "114": -0.05609640657486401,
              "115": 0.07099208465975246,
              "116": -0.07281785720868787,
              "117": 0.04175471990458234,
              "118": 0.0292530029564383,
              "119": 0.006106941047547216,
              "120": -0.012343963958422008,
              "121": 0.004781775061609918,
              "122": -0.002268571125544461,
              "123": -0.010808832644285463,
              "124": -0.09849694373579375,
              "125": -0.089961603174712,
              "126": 0.04243325177877224,
              "127": -0.09232303975616418,
              "128": -0.013266725046274465,
              "129": 0.06541082999491296,
              "130": -0.12583116767879404,
              "131": 0.007314876880959129,
              "132": 0.035353048208609975,
              "133": -0.06464965767238878,
              "134": -0.13873224113838098,
              "135": 0.13918319687951003,
              "136": 0.010074198733256642,
              "137": 0.03299370204121454,
              "138": -0.03154956827157983,
              "139": 0.044964067575197414,
              "140": 0.0338846392705427,
              "141": 0.034570828146205115,
              "142": 0.05527829386039242,
              "143": -0.05846483445274539,
              "144": 0.006405846300560806,
              "145": 0.06876549424766329,
              "146": 0.04610542893796379,
              "147": -0.08791083407461794,
              "148": -0.06411882265672816,
              "149": 0.03917653335458473,
              "150": 0.051414357126191586,
              "151": 0.052006956634298426,
              "152": -0.00017626178366787068,
              "153": 0.05496843762873842,
              "154": -0.037879931776505935,
              "155": 0.1335600608578016,
              "156": 0.01751537208377023,
              "157": -0.029019004535961287,
              "158": -0.055025704331918654,
              "159": 0.011210102116752444,
              "160": 0.05572863225512963,
              "161": 0.03985772572650288,
              "162": -0.13535689388163535,
              "163": -0.028883455488819997,
              "164": -0.03915140821954244,
              "165": 0.014387127690533248,
              "166": 0.014578287365580601,
              "167": 0.0037914238335397623,
              "168": -0.0010984938638188128,
              "169": 0.01392525207856751,
              "170": 0.013228547229428251,
              "171": 0.053536581910125274,
              "172": 0.05316552706986068,
              "173": -0.03263148261472132,
              "174": 0.07433271845450624,
              "175": -0.021807110742270108,
              "176": 0.06439668133189613,
              "177": -0.0656328883648334,
              "178": 0.13890795032564435,
              "179": -0.19646109355818842,
              "180": 0.03648358254273669,
              "181": -0.0221078627734892,
              "182": -0.05078569974714617,
              "183": 0.02128566300879125,
              "184": 0.0785045696962453,
              "185": -0.12317868452953892,
              "186": 0.16998015986974185,
              "187": 0.011833855592363562,
              "188": -0.04372958867803615,
              "189": 0.12184519227583579,
              "190": -0.02946932254264946,
              "191": 0.021372095448145976,
              "192": -0.08303231054124686,
              "193": -0.09742793433399638,
              "194": 0.10980523507472262,
              "195": -0.015040462623221468,
              "196": 0.0057129644215583,
              "197": 0.19532077722281976,
              "198": 0.05268444561517427,
              "199": -0.05527338007826604
            }
          },
          {
            "sx": 5,
            "sy": 5,
            "depth": 8,
            "w": {
              "0": -0.06295919781497435,
              "1": -0.0315101896643743,
              "2": 0.052223065865300615,
              "3": 0.12174493369865633,
              "4": -0.021321022977274447,
              "5": -0.07168842164577796,
              "6": -0.010841079592480964,
              "7": 0.05701775533577558,
              "8": 0.08465871392983318,
              "9": 0.06269293855615639,
              "10": 0.0766328190227013,
              "11": -0.05462614443368181,
              "12": 0.07813025551313346,
              "13": 0.050483991266017235,
              "14": 0.05471673408495104,
              "15": 0.07133577004221922,
              "16": -0.09813020408791809,
              "17": 0.09023032313272925,
              "18": -0.02712833780396162,
              "19": -0.016054710053268178,
              "20": 0.034016128221512544,
              "21": 0.08525432435341558,
              "22": -0.06798048293018076,
              "23": -0.001226107824983723,
              "24": 0.09406839669248254,
              "25": 0.08740805026161735,
              "26": -0.01217326252824915,
              "27": -0.002489950021289494,
              "28": -0.058390440001533137,
              "29": -0.02609893684443139,
              "30": -0.056285715491197943,
              "31": -0.03712345799920563,
              "32": 0.05694096336338938,
              "33": 0.12173639616186374,
              "34": 0.039377487558443114,
              "35": -0.08867341959558063,
              "36": -0.03533268357477975,
              "37": -0.11900942206781459,
              "38": 0.10813765404047362,
              "39": -0.01616635276316426,
              "40": -0.08659954070628323,
              "41": 0.09206548723339969,
              "42": 0.0036866236043108596,
              "43": 0.044833749841513455,
              "44": 0.023479699877933122,
              "45": -0.013076061347044888,
              "46": 0.04047985454718987,
              "47": -0.04239566379729796,
              "48": -0.040965381576213114,
              "49": -0.12820866995097507,
              "50": 0.0906641838517493,
              "51": 0.09476360648943964,
              "52": -0.06305074457251658,
              "53": -0.0283003808791787,
              "54": -0.012157010026040343,
              "55": 0.027265484922412337,
              "56": -0.018635083874516775,
              "57": 0.009516965990754436,
              "58": 0.029295166407443497,
              "59": 0.005230132165555312,
              "60": -0.0766803082986827,
              "61": -0.003491777082163771,
              "62": 0.10750324067096823,
              "63": 0.054683891865734226,
              "64": -0.0710442491353453,
              "65": 0.035477705935155444,
              "66": 0.03490604022078447,
              "67": -0.0038016372578832075,
              "68": -0.057206784380170565,
              "69": 0.021499537698726368,
              "70": -0.08200651608841167,
              "71": -0.044584113152378466,
              "72": -0.016809246691425767,
              "73": 0.10594946993037382,
              "74": -0.08830981330668429,
              "75": -0.03905937756635187,
              "76": -0.0662074015255079,
              "77": -0.09106367309474753,
              "78": -0.0018547646653986679,
              "79": -0.04033684508326016,
              "80": -0.04169440697766205,
              "81": -0.02637724649077757,
              "82": 0.07998510379168358,
              "83": -0.028035142770497932,
              "84": -0.03888187718628999,
              "85": -0.05855794769720138,
              "86": -0.10646329291344356,
              "87": 0.027713859284675315,
              "88": -0.016543960236085644,
              "89": 0.05265185826591378,
              "90": 0.14559192449781466,
              "91": -0.017723869526359775,
              "92": -0.043034267034089524,
              "93": -0.04009882698127725,
              "94": -0.00874646653049509,
              "95": 0.05208367138452202,
              "96": 0.11391943924682682,
              "97": -0.04297653485809052,
              "98": 0.02224533576386114,
              "99": -0.11675494271024997,
              "100": 0.003804035951327892,
              "101": 0.18907624760382308,
              "102": -0.06685125864011582,
              "103": 0.04319734368067731,
              "104": -0.10543340585667968,
              "105": -0.06648082956846484,
              "106": -0.033484550880864425,
              "107": -0.056593056052069275,
              "108": 0.0756622154988325,
              "109": -0.06858117659497462,
              "110": 0.1295966258385786,
              "111": 0.06768139199475083,
              "112": -0.08397642052544461,
              "113": 0.07206183109779389,
              "114": -0.012530695122481592,
              "115": 0.0551452435654271,
              "116": -0.021982948147212075,
              "117": 0.1298960429681468,
              "118": 0.01917332141665201,
              "119": -0.03162100983033185,
              "120": 0.03892171936254666,
              "121": -0.07115297113525743,
              "122": -0.0662393964169188,
              "123": -0.058444344203605864,
              "124": -0.008763650865198837,
              "125": -0.015977266145832877,
              "126": -0.10293079242119171,
              "127": -0.003327283093566029,
              "128": -0.029442152657927014,
              "129": -0.018909428879042716,
              "130": 0.11528203358471503,
              "131": -0.04961594270481476,
              "132": 0.021816501286087895,
              "133": -0.1502814329255372,
              "134": -0.12297543921727055,
              "135": -0.001876845292015077,
              "136": 0.07390186437524046,
              "137": 0.06038677412850338,
              "138": -0.06527629540464344,
              "139": -0.09644095351911029,
              "140": -0.021256752527201495,
              "141": -0.008279653490894892,
              "142": 0.03190774325072844,
              "143": -0.033753506158011495,
              "144": 0.00044777276373126197,
              "145": -0.030910449468084307,
              "146": 0.08266715742854933,
              "147": 0.026700328812818818,
              "148": -0.13712387285366137,
              "149": 0.06848216816202393,
              "150": 0.0038335129546537617,
              "151": -0.08675345326006903,
              "152": 0.0000680937748080452,
              "153": -0.07299123814056713,
              "154": -0.040426013942459864,
              "155": 0.010318081364731675,
              "156": -0.038353153663225385,
              "157": -0.029754518876460977,
              "158": 0.05702036654413416,
              "159": -0.07006017700916023,
              "160": 0.05434862323174371,
              "161": -0.053069679981842026,
              "162": 0.05838464548311256,
              "163": -0.02374204536222271,
              "164": -0.04310223526276802,
              "165": 0.09141845444581398,
              "166": 0.0035207284416328842,
              "167": 0.052904589896931406,
              "168": -0.04791576744392759,
              "169": 0.016148392594377378,
              "170": 0.008158921474887778,
              "171": 0.020421608647824996,
              "172": 0.08159816732658605,
              "173": -0.028603177151423773,
              "174": -0.07206452148656227,
              "175": 0.055903313803490354,
              "176": 0.05279119839066723,
              "177": -0.059095597409726024,
              "178": 0.0879138786800722,
              "179": 0.12815189818171668,
              "180": 0.05081341185872038,
              "181": -0.16533456518332676,
              "182": -0.008171981774382931,
              "183": 0.020091738922865032,
              "184": -0.06366561215019341,
              "185": 0.007932988909889988,
              "186": -0.0549352413745904,
              "187": 0.019938843890136077,
              "188": -0.2035175376461231,
              "189": -0.005341038297632333,
              "190": 0.016173409563641963,
              "191": -0.12848171092060123,
              "192": 0.023283921906642406,
              "193": 0.07696189434935913,
              "194": 0.059731972610785854,
              "195": -0.04432054968386837,
              "196": 0.01823536703801012,
              "197": -0.03602573601323693,
              "198": 0.05962341464038376,
              "199": -0.0019346209819651227
            }
          },
          {
            "sx": 5,
            "sy": 5,
            "depth": 8,
            "w": {
              "0": -0.03630983267550311,
              "1": 0.045219534929953606,
              "2": -0.023682288210566234,
              "3": 0.0476861083687707,
              "4": 0.013645049566670994,
              "5": 0.02516689946906352,
              "6": -0.02312799210338009,
              "7": -0.0017612308974913993,
              "8": 0.052726490830319474,
              "9": -0.000793836210939951,
              "10": -0.043921647675076225,
              "11": 0.02326811187122246,
              "12": -0.034935563172762585,
              "13": -0.0872645656664075,
              "14": -0.029538862712571556,
              "15": 0.010837853137935524,
              "16": 0.08864685377417589,
              "17": -0.016053858475330876,
              "18": 0.0034624220987110477,
              "19": 0.08968293779044274,
              "20": 0.004965155584168888,
              "21": -0.05270324748706185,
              "22": -0.07465277774416891,
              "23": -0.04352470888023381,
              "24": 0.05435205232188056,
              "25": 0.056500701196512,
              "26": 0.11050972482611533,
              "27": 0.052995375479881326,
              "28": 0.006382075052149222,
              "29": 0.019835732603141382,
              "30": -0.08342522338849634,
              "31": -0.10441477552037923,
              "32": 0.08072642126729677,
              "33": -0.012322191368430034,
              "34": -0.018021824425393997,
              "35": -0.012121253690463504,
              "36": -0.013131010665500726,
              "37": 0.025906299127864015,
              "38": 0.03037515185728905,
              "39": -0.09861009348598812,
              "40": 0.06861679048709395,
              "41": 0.02861734064523613,
              "42": -0.03631900084437218,
              "43": 0.15378407915769868,
              "44": -0.04996298769987111,
              "45": -0.03586808870816884,
              "46": 0.09095186253453699,
              "47": 0.013197493486926642,
              "48": -0.004309690188354568,
              "49": -0.173767922577757,
              "50": 0.0030682785325294457,
              "51": 0.025062887427884033,
              "52": 0.009824114032344372,
              "53": -0.023493338191825232,
              "54": -0.15958629781744893,
              "55": -0.10386791408743205,
              "56": 0.07944783806116112,
              "57": 0.05986587345056817,
              "58": 0.1347795231086048,
              "59": 0.009425076988475145,
              "60": 0.014611822926828385,
              "61": -0.03850232324890431,
              "62": 0.02686136341094301,
              "63": -0.006452877297091334,
              "64": 0.009185073089110787,
              "65": -0.025242760975765458,
              "66": 0.05003691300933766,
              "67": 0.017718996217905677,
              "68": -0.016290689339102576,
              "69": -0.1230437449956302,
              "70": -0.09821347809561755,
              "71": -0.022319672565736803,
              "72": 0.03855966288991005,
              "73": 0.055293844888028305,
              "74": 0.0008830533355188283,
              "75": 0.03406243919276162,
              "76": 0.07580632604868227,
              "77": -0.014075746750668241,
              "78": 0.08718204069547461,
              "79": 0.01984494220214613,
              "80": 0.018450653387423865,
              "81": 0.03267901758675865,
              "82": 0.007495474056722511,
              "83": -0.08795668721087414,
              "84": 0.05967329269310966,
              "85": 0.01827295728132581,
              "86": -0.0378979432911593,
              "87": -0.0033163143168459,
              "88": 0.050310708583738456,
              "89": 0.06620826274106155,
              "90": 0.01143095911211247,
              "91": 0.06309454720206255,
              "92": -0.009706876262257545,
              "93": 0.11143820734381255,
              "94": 0.03760368919772484,
              "95": 0.03870701206690178,
              "96": 0.1112597799445231,
              "97": 0.06472774469307288,
              "98": -0.007998982783927923,
              "99": 0.02999048463322309,
              "100": -0.0870144871025974,
              "101": 0.04133136059220064,
              "102": -0.0376220163262452,
              "103": 0.04340319493169716,
              "104": 0.009258035694599308,
              "105": -0.11026353842347533,
              "106": -0.008629118387800398,
              "107": 0.044118583154040145,
              "108": 0.057664267532724536,
              "109": -0.11109978142246914,
              "110": -0.041043718940120225,
              "111": 0.03535004485321747,
              "112": -0.026980861946680833,
              "113": 0.05839574693414423,
              "114": -0.0209248505360397,
              "115": 0.03626779503530728,
              "116": -0.041749176508846415,
              "117": 0.03929851860673475,
              "118": -0.012780455014782744,
              "119": 0.05374842315955905,
              "120": -0.08256784026123591,
              "121": 0.09239087312782217,
              "122": -0.08363695592754057,
              "123": -0.010795177164982062,
              "124": 0.06816518808985997,
              "125": 0.13021512960630216,
              "126": 0.05631221725038031,
              "127": 0.08135334784590259,
              "128": 0.1318858597552357,
              "129": -0.012974982424681083,
              "130": -0.06764969946620145,
              "131": 0.04257480538894555,
              "132": -0.045706353185814334,
              "133": -0.0701708005867562,
              "134": -0.014268951265174775,
              "135": 0.0939525255217901,
              "136": 0.05181158825912501,
              "137": -0.07743521764260919,
              "138": 0.054068953462503545,
              "139": -0.035556934055542805,
              "140": -0.08301133776601262,
              "141": 0.13273258822440107,
              "142": -0.011563940480080954,
              "143": 0.04647755876217256,
              "144": -0.02502065322883154,
              "145": -0.012221936471440828,
              "146": -0.07377318312955256,
              "147": -0.12622439509065306,
              "148": 0.007945998718115183,
              "149": -0.018663378198963028,
              "150": 0.033309555484806276,
              "151": -0.05791652166241986,
              "152": 0.09353326671151592,
              "153": 0.009854757338694977,
              "154": 0.11070705448723052,
              "155": 0.062311753994737616,
              "156": -0.1259969249283568,
              "157": 0.08865675872850247,
              "158": 0.04575778832842678,
              "159": -0.17877701068147564,
              "160": 0.11257459851578323,
              "161": -0.020262355172183093,
              "162": 0.051587447824723506,
              "163": -0.012636970998056081,
              "164": -0.06398687667609854,
              "165": 0.06024035214446283,
              "166": -0.05194923489145412,
              "167": -0.10453453715294415,
              "168": 0.0524864810235238,
              "169": -0.005318399957893423,
              "170": -0.0016979171587636409,
              "171": 0.029968501452316436,
              "172": -0.012307699039201985,
              "173": -0.03363539578382753,
              "174": -0.12140571183251757,
              "175": -0.04486770935539834,
              "176": 0.1753555195629747,
              "177": -0.03154003337482201,
              "178": 0.08160358796511412,
              "179": -0.07427986835632418,
              "180": -0.08849041446558947,
              "181": 0.07980611860463821,
              "182": -0.002360502513741552,
              "183": -0.10591725342926567,
              "184": 0.012306030038276551,
              "185": -0.014771367119255498,
              "186": -0.047908903036135576,
              "187": -0.07937800757133369,
              "188": -0.03112072758162914,
              "189": 0.14102735016426002,
              "190": -0.08445978925533183,
              "191": -0.10295737967024077,
              "192": -0.01854582855649723,
              "193": 0.05578517592436255,
              "194": 0.008327076722601492,
              "195": 0.001709702637963077,
              "196": -0.016174287967754258,
              "197": 0.08988138177892664,
              "198": -0.08879616216216074,
              "199": -0.1619226111117141
            }
          },
          {
            "sx": 5,
            "sy": 5,
            "depth": 8,
            "w": {
              "0": 0.03293575649747504,
              "1": 0.03357917327740131,
              "2": -0.029985064458772602,
              "3": -0.03426097528621882,
              "4": 0.009674467631515887,
              "5": -0.050801208765518975,
              "6": 0.054296566941877115,
              "7": -0.014883753786745536,
              "8": -0.06474622434195104,
              "9": 0.007274556047154679,
              "10": 0.04149235491282915,
              "11": 0.05085513759730355,
              "12": -0.06238129209068856,
              "13": 0.06990544751883417,
              "14": 0.04801050017433446,
              "15": 0.01874275017561994,
              "16": -0.057124878331072264,
              "17": -0.0906266523741003,
              "18": -0.08542695120538911,
              "19": -0.05426996867712529,
              "20": -0.058855645319448445,
              "21": -0.013650657465223986,
              "22": -0.16181470258739344,
              "23": -0.060668990608651066,
              "24": 0.006133100015934088,
              "25": 0.14942370280496867,
              "26": -0.09216225206101737,
              "27": -0.03590390404717288,
              "28": 0.14673956990278234,
              "29": -0.13900329997533642,
              "30": 0.11427136335968045,
              "31": -0.09247411344914591,
              "32": -0.14838328999918612,
              "33": 0.00974009846608816,
              "34": 0.031772670571421156,
              "35": 0.019446426368115687,
              "36": -0.09372085108769665,
              "37": -0.020727205454825443,
              "38": 0.003733970940451244,
              "39": -0.030472056407254717,
              "40": 0.13761577273528158,
              "41": -0.008943851085567658,
              "42": -0.07479827329917257,
              "43": 0.030728229861183988,
              "44": 0.10386037068812477,
              "45": -0.07300402340724008,
              "46": 0.02300995529571249,
              "47": 0.10365493762536464,
              "48": 0.06385106241267,
              "49": 0.01115178122424217,
              "50": -0.0014663111864922482,
              "51": 0.07293473384977175,
              "52": -0.1550636348741424,
              "53": 0.012310026275772507,
              "54": 0.030973626953897524,
              "55": -0.021220172218898305,
              "56": -0.019030231335092247,
              "57": 0.059853565505625136,
              "58": 0.08038806622506134,
              "59": 0.07068122284415226,
              "60": -0.08883502373184092,
              "61": -0.07441043282622752,
              "62": -0.026894211101292472,
              "63": 0.09273767227983211,
              "64": -0.07794457318157348,
              "65": -0.0003670873109322217,
              "66": 0.08373661716774468,
              "67": -0.01842287353224069,
              "68": 0.003091475747818921,
              "69": 0.03705712939367022,
              "70": 0.043649635885036765,
              "71": 0.010479697498925676,
              "72": -0.01845532977655575,
              "73": 0.02418242384535251,
              "74": 0.11849143654807995,
              "75": -0.05226362952528686,
              "76": 0.08834271504370271,
              "77": -0.172217352828926,
              "78": 0.04497526483232336,
              "79": -0.0036406149188811425,
              "80": 0.08339311259818545,
              "81": 0.0137498217908127,
              "82": 0.003294823081974782,
              "83": 0.06380337110884732,
              "84": -0.007374570099087578,
              "85": -0.00758893612436466,
              "86": 0.07383289500227318,
              "87": 0.10388928821296729,
              "88": -0.011052995958229414,
              "89": 0.09306138002849752,
              "90": 0.10631621532934475,
              "91": 0.041118532036651924,
              "92": -0.06482317221058424,
              "93": 0.1257358937201593,
              "94": -0.04064063648324772,
              "95": -0.04164279594077951,
              "96": -0.014030456657563507,
              "97": -0.10971915172799684,
              "98": 0.005899741269250833,
              "99": 0.021537830627481616,
              "100": -0.0014692515969952343,
              "101": 0.01872475377473267,
              "102": -0.01830136338452116,
              "103": -0.01802877924853515,
              "104": -0.11208736088947176,
              "105": -0.07077842547630797,
              "106": -0.07798351183448696,
              "107": -0.04942474773889456,
              "108": 0.0005617920147606681,
              "109": 0.012209423192344589,
              "110": 0.02158895752028394,
              "111": 0.14267425444223367,
              "112": -0.11044229943498532,
              "113": -0.1055019500802033,
              "114": -0.06353164786858545,
              "115": -0.06117166025157852,
              "116": -0.060169076117879604,
              "117": -0.06751138482237203,
              "118": 0.007005595831491116,
              "119": -0.11274680852525983,
              "120": -0.0713516146020224,
              "121": -0.08095786189386377,
              "122": 0.09354939057459255,
              "123": 0.04361448323017112,
              "124": 0.00019580141839785643,
              "125": 0.08477330895392031,
              "126": -0.1009206487006597,
              "127": 0.04010883733277433,
              "128": -0.1364476964388034,
              "129": -0.0665343949628268,
              "130": -0.029097516268904677,
              "131": -0.09925626323667444,
              "132": 0.03314899314917859,
              "133": 0.08537890043154571,
              "134": -0.035043444555034234,
              "135": -0.08494601388056565,
              "136": 0.02644106373522627,
              "137": -0.03733135413523803,
              "138": -0.1466800740826708,
              "139": -0.14038701160976705,
              "140": -0.08699917903798643,
              "141": 0.13518087527686903,
              "142": -0.03952506193851881,
              "143": 0.008911745380020616,
              "144": 0.1596229209198956,
              "145": -0.11195427162888798,
              "146": -0.13258239996837784,
              "147": -0.03392254097361147,
              "148": 0.08333415515765362,
              "149": 0.05945826506819412,
              "150": 0.07555304671266937,
              "151": 0.04885232801388645,
              "152": 0.046771942262856574,
              "153": 0.05804255495964759,
              "154": 0.04595350008601702,
              "155": 0.1820955729890837,
              "156": -0.06441762112701027,
              "157": -0.03787855349957604,
              "158": 0.09325003295366117,
              "159": -0.03289779879343096,
              "160": -0.09023736768350206,
              "161": -0.06335475588602685,
              "162": 0.03907484920529537,
              "163": -0.0361186451863664,
              "164": 0.06853987643736129,
              "165": -0.0404919896913039,
              "166": 0.08076114780490617,
              "167": -0.03064631414390599,
              "168": 0.1281588034048281,
              "169": 0.044170996043489154,
              "170": -0.0001631949131628943,
              "171": -0.023277722861491983,
              "172": -0.17412224611566487,
              "173": 0.045777986141141695,
              "174": 0.06045169031656892,
              "175": 0.02480256362582311,
              "176": -0.027230607639104478,
              "177": -0.10530024481928085,
              "178": -0.01705314908165383,
              "179": 0.1401240518815657,
              "180": 0.07367066843703336,
              "181": -0.07767732368834071,
              "182": 0.04876071859924983,
              "183": -0.08090221491917154,
              "184": -0.055685974726037236,
              "185": 0.07529508288360379,
              "186": 0.09943129152249233,
              "187": 0.05065789137888156,
              "188": 0.03643898560672578,
              "189": 0.041184154580810366,
              "190": 0.01641255198013795,
              "191": -0.14934642366557938,
              "192": 0.03310120923451351,
              "193": 0.05350439293778254,
              "194": 0.0705538257995346,
              "195": -0.09925844244398538,
              "196": 0.030465752697717705,
              "197": 0.005494850197702479,
              "198": -0.08237504765905508,
              "199": 0.02944748048950005
            }
          },
          {
            "sx": 5,
            "sy": 5,
            "depth": 8,
            "w": {
              "0": -0.1219006955717636,
              "1": -0.036255369888955655,
              "2": 0.06253994375945686,
              "3": -0.16571835622705977,
              "4": -0.02180678158636388,
              "5": 0.024314204810693556,
              "6": 0.02345221928470693,
              "7": 0.01973071532269691,
              "8": -0.12936925165968674,
              "9": -0.01845433392520115,
              "10": -0.07125699916014823,
              "11": 0.08571020224514526,
              "12": 0.000587862156747982,
              "13": -0.07236038759358003,
              "14": 0.07712375303827917,
              "15": -0.02504666007411636,
              "16": -0.10161605325012758,
              "17": 0.0035867640148461856,
              "18": -0.09573701168301178,
              "19": 0.1845924392671599,
              "20": -0.038512966178638454,
              "21": -0.04042710967437805,
              "22": 0.2316983374483855,
              "23": 0.07877193548596084,
              "24": 0.034738721207197364,
              "25": 0.09419637100176072,
              "26": 0.11459057890399967,
              "27": -0.1908363943144939,
              "28": -0.05776928822984473,
              "29": -0.04795063906325117,
              "30": -0.0698318612127106,
              "31": 0.045130678139086694,
              "32": 0.04277079853406737,
              "33": -0.023760409937382633,
              "34": 0.00953166711537521,
              "35": -0.04169020511364305,
              "36": 0.004035496600264954,
              "37": -0.20907631535125473,
              "38": 0.0825477245596141,
              "39": 0.05228357854866564,
              "40": 0.0029964809306893907,
              "41": -0.07150594915880408,
              "42": -0.09996320308671708,
              "43": 0.007528435006921802,
              "44": -0.06543432319405956,
              "45": -0.007058559488008882,
              "46": 0.0761015785866184,
              "47": 0.05478873417519578,
              "48": -0.008506801407118859,
              "49": 0.08761970597004587,
              "50": 0.13119557171858126,
              "51": -0.061957085508229266,
              "52": -0.045015249651641435,
              "53": 0.004871264040700462,
              "54": -0.07154008791565088,
              "55": -0.009787887314158588,
              "56": 0.008244351900037073,
              "57": -0.10237165944289668,
              "58": 0.04519312333676303,
              "59": -0.07809626940366482,
              "60": -0.08528144706502512,
              "61": -0.010060359368734366,
              "62": 0.06926544048131224,
              "63": -0.09216036950505867,
              "64": -0.03239524195994641,
              "65": -0.06058065017293101,
              "66": 0.05203854095786646,
              "67": 0.002042455675018756,
              "68": 0.02547675345046015,
              "69": 0.07187044036122067,
              "70": 0.10342124269691384,
              "71": 0.05543653723703961,
              "72": 0.04994783746236115,
              "73": -0.07652489996698177,
              "74": -0.006643807717233929,
              "75": 0.14403422325710935,
              "76": 0.03867472227058177,
              "77": 0.057668405291015426,
              "78": -0.06457892045488638,
              "79": 0.08419529464185704,
              "80": -0.11192405851959844,
              "81": 0.03900954477126048,
              "82": 0.038285320251134985,
              "83": -0.07916952014279681,
              "84": -0.0079813831097514,
              "85": -0.008432145172047443,
              "86": -0.025039996317107883,
              "87": -0.0354407132619138,
              "88": 0.07151840675696217,
              "89": 0.0958427841151387,
              "90": -0.013505052042599407,
              "91": 0.01877945893144988,
              "92": 0.06430278219973236,
              "93": -0.031266057863001205,
              "94": 0.012686097912485953,
              "95": -0.11096326893203896,
              "96": -0.1301552218723121,
              "97": 0.05904077323690764,
              "98": -0.11289518358358336,
              "99": 0.06337118911274985,
              "100": -0.03939017805353267,
              "101": -0.011889095455193488,
              "102": -0.15694076648318317,
              "103": 0.0694184544970154,
              "104": -0.020677848829204436,
              "105": -0.039336355778743066,
              "106": 0.03178247208895752,
              "107": -0.06018585559409512,
              "108": 0.047056584168347605,
              "109": 0.010018397779443878,
              "110": -0.04866030252310115,
              "111": 0.08633606628286403,
              "112": 0.041033494334340184,
              "113": -0.01026369712293973,
              "114": -0.053029984033410624,
              "115": 0.05192562987958369,
              "116": -0.08368628234457498,
              "117": 0.058265750457022855,
              "118": 0.17100682301282324,
              "119": -0.003972429729914931,
              "120": -0.0551874786335179,
              "121": 0.07926531458363516,
              "122": -0.1011390698467101,
              "123": 0.02976770817957768,
              "124": -0.08119929989132456,
              "125": -0.07085833892809225,
              "126": 0.09633056673279325,
              "127": -0.008841255318870459,
              "128": 0.07165142916340446,
              "129": -0.02736597960071043,
              "130": -0.10004225498002228,
              "131": 0.053759549433276606,
              "132": 0.056311075456290265,
              "133": -0.1034242799686772,
              "134": -0.004027930634693827,
              "135": 0.017457649694698974,
              "136": 0.0808826990692698,
              "137": 0.07499864380541939,
              "138": -0.04151696793105237,
              "139": -0.03492808281137208,
              "140": 0.01821550739685513,
              "141": -0.010991219412243538,
              "142": 0.10609657162025435,
              "143": 0.01970668149506397,
              "144": -0.0193662570637199,
              "145": 0.012682132973862463,
              "146": -0.026488751777854914,
              "147": 0.04566364103912253,
              "148": -0.06611876158612351,
              "149": -0.06178896668396877,
              "150": -0.05095033637319851,
              "151": 0.0362000719128702,
              "152": -0.11029212279214862,
              "153": 0.10062754292401971,
              "154": -0.015800265331334953,
              "155": -0.02807641130096593,
              "156": -0.031282007493763586,
              "157": 0.10481986853635458,
              "158": -0.07106490654572345,
              "159": -0.084195863205205,
              "160": -0.031672637845962186,
              "161": -0.0913049314564072,
              "162": -0.051620781361537894,
              "163": 0.007448948887708964,
              "164": -0.07284342846239598,
              "165": -0.13583247916899696,
              "166": -0.050866067116959124,
              "167": 0.03423973950912619,
              "168": 0.1301043201334449,
              "169": -0.08310706425799079,
              "170": 0.05115730556159231,
              "171": -0.041890206833368124,
              "172": 0.02252706118664676,
              "173": 0.018608682456771587,
              "174": -0.016898918918502415,
              "175": 0.12059488667019214,
              "176": -0.07531118047272935,
              "177": 0.0071133163307986035,
              "178": 0.004421138284213724,
              "179": 0.0572346600147513,
              "180": 0.08631764510285407,
              "181": -0.10042390464705171,
              "182": -0.07971590427615742,
              "183": 0.027440010152733785,
              "184": 0.02914101182078291,
              "185": -0.0005283216251826292,
              "186": -0.026180257050447762,
              "187": 0.030336529629585517,
              "188": -0.06898798210981301,
              "189": -0.09168474574781316,
              "190": 0.08166287735229993,
              "191": 0.06729729226285926,
              "192": 0.07913991352402705,
              "193": 0.0936775971377842,
              "194": 0.013578516813039503,
              "195": 0.022902008883270958,
              "196": 0.12198131528131076,
              "197": 0.10283124921717804,
              "198": 0.0761171447300202,
              "199": -0.06606418999806764
            }
          },
          {
            "sx": 5,
            "sy": 5,
            "depth": 8,
            "w": {
              "0": -0.018730587141504364,
              "1": 0.0504140223314549,
              "2": 0.001430623993264717,
              "3": 0.010007943255761318,
              "4": -0.07566895767853676,
              "5": 0.06845635705396809,
              "6": -0.1650638188292624,
              "7": 0.002853711421073743,
              "8": 0.05365575145478874,
              "9": -0.05046026086955657,
              "10": -0.03879727144064237,
              "11": -0.07178351293438104,
              "12": -0.019066804916120613,
              "13": -0.010305508677724303,
              "14": 0.0007519436493094588,
              "15": 0.10001701313453812,
              "16": -0.00971736356187525,
              "17": -0.019721788388718114,
              "18": -0.10597115840182617,
              "19": -0.04314202353091489,
              "20": -0.08001559085728915,
              "21": 0.05705303693360361,
              "22": 0.03296511583198757,
              "23": 0.009253752485907542,
              "24": -0.032686846273089994,
              "25": -0.08428929789975595,
              "26": 0.027397245934824732,
              "27": 0.05619079468297534,
              "28": -0.001273144340325816,
              "29": -0.02224302949178402,
              "30": -0.10018253364453106,
              "31": -0.07891789001811884,
              "32": -0.002964774563018566,
              "33": 0.003251418370503233,
              "34": -0.10583791867332988,
              "35": 0.06502179964222048,
              "36": 0.01593718138227819,
              "37": -0.08696803820871311,
              "38": -0.015461426733291993,
              "39": -0.0621850488940547,
              "40": 0.03497624920607403,
              "41": -0.023716467195719064,
              "42": 0.09315844761509891,
              "43": 0.09261707154855495,
              "44": 0.0423210472872264,
              "45": 0.028857543300953425,
              "46": 0.047945345210477566,
              "47": 0.004892300932423609,
              "48": 0.05411052638407607,
              "49": 0.08694840245490172,
              "50": -0.17506598366329193,
              "51": -0.09081897326687167,
              "52": 0.013665646910098101,
              "53": -0.01421178192510693,
              "54": -0.10002956430103703,
              "55": 0.13900911766797458,
              "56": -0.05936361067691709,
              "57": -0.007584781302359428,
              "58": -0.12287019710626057,
              "59": -0.0327158458073885,
              "60": 0.10583444667567607,
              "61": -0.009606507327538942,
              "62": -0.07179972686938094,
              "63": 0.06063432496467344,
              "64": 0.006782721062268549,
              "65": -0.07445317552212188,
              "66": 0.07625493159614563,
              "67": 0.15848117867091266,
              "68": 0.006099072475448326,
              "69": 0.0297133727115842,
              "70": 0.0033709298731420005,
              "71": -0.017123738375647343,
              "72": -0.013378738464169744,
              "73": -0.049373811619526004,
              "74": 0.1808982596957764,
              "75": 0.0033293813544852794,
              "76": 0.02952655754877444,
              "77": 0.05767419630495919,
              "78": 0.0827642184120766,
              "79": 0.059751122757601416,
              "80": -0.07668441195226597,
              "81": 0.08903125870128265,
              "82": -0.04338688389527603,
              "83": -0.10741527674114368,
              "84": 0.027777657684179256,
              "85": 0.05741781467138026,
              "86": 0.07889945305228659,
              "87": -0.05546115043317506,
              "88": -0.12234103375060038,
              "89": -0.01848920539904781,
              "90": -0.13090639214375244,
              "91": 0.04321957712309166,
              "92": -0.01979678751225463,
              "93": 0.04551547519074009,
              "94": -0.032309978883639116,
              "95": 0.030588705678549245,
              "96": 0.12266409256290223,
              "97": 0.12087805175968862,
              "98": 0.03153599167042458,
              "99": 0.0951124929189404,
              "100": 0.04276946551761406,
              "101": 0.13695619087820357,
              "102": -0.04403494789782978,
              "103": -0.023781052067244658,
              "104": 0.09296258037960084,
              "105": 0.10173392990273891,
              "106": 0.11134927028470917,
              "107": 0.049803035637174316,
              "108": -0.01982075225530752,
              "109": 0.07793729867709986,
              "110": -0.022088284460983987,
              "111": -0.01989852440029077,
              "112": 0.16262222561353895,
              "113": 0.005190663707518487,
              "114": -0.02535703377865472,
              "115": 0.026784517843708562,
              "116": -0.017589196157880887,
              "117": 0.03520829127159855,
              "118": -0.11241546121663613,
              "119": 0.033556728611054305,
              "120": -0.039123033104925035,
              "121": 0.14823894439248353,
              "122": 0.05672279716200784,
              "123": -0.00062862588174254,
              "124": 0.05081503750339024,
              "125": 0.13201963969750158,
              "126": 0.03790348722189805,
              "127": -0.0017044475363669426,
              "128": 0.06288229569017241,
              "129": 0.062056310181677926,
              "130": 0.04651987696519754,
              "131": -0.027503616173306808,
              "132": -0.0008236679768057019,
              "133": 0.1217271579365482,
              "134": -0.04044463149519265,
              "135": 0.009363992060331564,
              "136": 0.16497804935806082,
              "137": -0.07461990825866614,
              "138": 0.0029512922127353175,
              "139": -0.0018531165199789459,
              "140": 0.093462416194132,
              "141": 0.05861826427327366,
              "142": 0.021692669618102026,
              "143": -0.013743276113692908,
              "144": -0.0647150646983694,
              "145": 0.014082237490693,
              "146": 0.011074128103308723,
              "147": -0.0784675844350725,
              "148": -0.11490516807217131,
              "149": 0.0036114549056153896,
              "150": -0.08162939875513765,
              "151": -0.039602663746263825,
              "152": -0.04789485473089781,
              "153": -0.07182647498163794,
              "154": -0.023290667661794086,
              "155": -0.032016001464028554,
              "156": -0.013350319165124259,
              "157": 0.057095790032374444,
              "158": -0.03762590614911628,
              "159": -0.10318788775180487,
              "160": 0.10049476349475736,
              "161": 0.07935870930950993,
              "162": 0.10342758231694252,
              "163": 0.06577174690053653,
              "164": -0.07632573368350727,
              "165": -0.05277517261664857,
              "166": 0.05723977662536157,
              "167": 0.0833225048546448,
              "168": -0.07644459451040025,
              "169": -0.011912920487002375,
              "170": 0.021177952371481634,
              "171": -0.06869368914022943,
              "172": 0.08926590841442808,
              "173": 0.030679629119951854,
              "174": -0.012310370540932229,
              "175": 0.025740072176997312,
              "176": -0.12694236406029002,
              "177": 0.1280640918553287,
              "178": -0.01663686508888503,
              "179": -0.08739691374701146,
              "180": 0.0385744889709401,
              "181": -0.1785692711745854,
              "182": -0.012933458076519968,
              "183": 0.006050650834449232,
              "184": 0.02884549635791494,
              "185": 0.04757326390540187,
              "186": -0.04187398667659909,
              "187": 0.06555751389882787,
              "188": 0.024362458519994284,
              "189": -0.11871442666104837,
              "190": -0.037463000197168174,
              "191": -0.14347956021973546,
              "192": 0.01406160906126609,
              "193": -0.022685522276812486,
              "194": -0.0353410861987451,
              "195": -0.17057986222500132,
              "196": 0.0011777883001699455,
              "197": 0.033491799339325404,
              "198": -0.049218451759454544,
              "199": 0.1577849976265472
            }
          },
          {
            "sx": 5,
            "sy": 5,
            "depth": 8,
            "w": {
              "0": -0.07065850024914402,
              "1": 0.030123098873366748,
              "2": 0.057961850520860315,
              "3": 0.06026574931899568,
              "4": -0.03671607558745066,
              "5": 0.08882152575688107,
              "6": -0.055059362370964315,
              "7": 0.00294055511528496,
              "8": 0.017544126159153982,
              "9": 0.07741404805497167,
              "10": 0.01901412047303812,
              "11": -0.09349428258262274,
              "12": 0.1034145611987727,
              "13": 0.055657743398242275,
              "14": -0.05363536577831586,
              "15": -0.02150798809131998,
              "16": -0.08172185276095581,
              "17": -0.06617798632402794,
              "18": -0.08942480244057902,
              "19": 0.042412925195533274,
              "20": -0.0145625420669233,
              "21": 0.06341111376348854,
              "22": -0.04263022125988863,
              "23": 0.10282504417296694,
              "24": -0.2084637098162558,
              "25": -0.03778369705014601,
              "26": -0.12449967376995856,
              "27": -0.018448883384624058,
              "28": 0.0444499829068792,
              "29": 0.09060359046831862,
              "30": -0.058343452062328174,
              "31": -0.009428939485989787,
              "32": 0.0521477810325129,
              "33": 0.051481080524018855,
              "34": -0.010416026372768703,
              "35": -0.02654058614752166,
              "36": -0.1190660456189211,
              "37": 0.0538971692826066,
              "38": 0.07730773873468809,
              "39": 0.04714416586937352,
              "40": -0.12011724850711286,
              "41": -0.006002429519414247,
              "42": -0.03403035875901434,
              "43": -0.05691279859081184,
              "44": 0.05611983884442891,
              "45": 0.04758664468261093,
              "46": 0.050665939203017825,
              "47": 0.034133102820736796,
              "48": 0.05037633381242508,
              "49": -0.09675502103894683,
              "50": -0.09394892946797787,
              "51": 0.0988079560166948,
              "52": -0.03358267258686763,
              "53": -0.08982641703422979,
              "54": -0.0671264838408029,
              "55": 0.03721825919886473,
              "56": 0.10258137388360293,
              "57": -0.05336838553081502,
              "58": -0.018327233676319752,
              "59": -0.06701425291693676,
              "60": 0.09130513488348654,
              "61": -0.06756517333402726,
              "62": -0.15369319433982356,
              "63": -0.021580418904132453,
              "64": 0.04645650215132442,
              "65": -0.03241517024173269,
              "66": 0.04326737542213644,
              "67": -0.05318542547096234,
              "68": 0.018784925734917596,
              "69": -0.06065697514980802,
              "70": 0.014538209361799993,
              "71": 0.019072638316855475,
              "72": -0.010661475253501184,
              "73": -0.10157241008998213,
              "74": -0.018996857932277976,
              "75": 0.041732680304211386,
              "76": -0.023491599477822544,
              "77": -0.04051918562183148,
              "78": -0.03540192913325195,
              "79": 0.02107893617370208,
              "80": 0.021667231888599058,
              "81": 0.011301788494288466,
              "82": -0.031049644897863167,
              "83": 0.07161522369086508,
              "84": 0.06807268682283871,
              "85": -0.119335156710668,
              "86": 0.03760149643043949,
              "87": -0.03014019224197732,
              "88": -0.07453306904262369,
              "89": -0.061330944077435307,
              "90": -0.023965258449384158,
              "91": 0.10861868575221231,
              "92": -0.12884618635543144,
              "93": 0.01991052109265105,
              "94": 0.04480982904360439,
              "95": 0.03658236439252164,
              "96": 0.09362481932537943,
              "97": 0.09583331507796396,
              "98": -0.10349079724931004,
              "99": 0.011666310924746959,
              "100": 0.07805495587706356,
              "101": -0.04177849667016613,
              "102": 0.06731006865345811,
              "103": 0.036584841138733726,
              "104": 0.11578330334441629,
              "105": 0.03772892899629042,
              "106": 0.11245596847347711,
              "107": 0.010887376881085587,
              "108": 0.11090346494431431,
              "109": -0.058496763553101384,
              "110": 0.0778763237601532,
              "111": -0.06604699583093905,
              "112": 0.0052723672248677685,
              "113": -0.021933966947780666,
              "114": 0.11007162055409521,
              "115": 0.07609483663884323,
              "116": 0.14311092037247145,
              "117": 0.023674688324528792,
              "118": -0.03267994402943499,
              "119": 0.07831270518764627,
              "120": 0.04290710452728435,
              "121": -0.11043792337339245,
              "122": 0.0864208231637427,
              "123": 0.15568873643162076,
              "124": -0.04786628665382266,
              "125": -0.0024230317470584676,
              "126": -0.11391570135954211,
              "127": -0.1082637703301234,
              "128": -0.0678955306395001,
              "129": -0.012410323208068584,
              "130": -0.021181109400638793,
              "131": -0.13896380363383107,
              "132": -0.09985488707855412,
              "133": 0.0053966350173313745,
              "134": -0.0512937689071285,
              "135": 0.12216429758463927,
              "136": 0.04914403137650776,
              "137": 0.012764215913909228,
              "138": 0.05740366609943987,
              "139": -0.00483746889566943,
              "140": -0.1361849014375445,
              "141": 0.049684935496886816,
              "142": -0.028731433603433353,
              "143": 0.03921764032014039,
              "144": 0.03658521726704709,
              "145": 0.10702570616661371,
              "146": 0.1641432125915052,
              "147": -0.11368797804957519,
              "148": -0.008357047374455957,
              "149": -0.02761930215392685,
              "150": 0.07483240922627125,
              "151": -0.2612893696042218,
              "152": 0.053375153944013674,
              "153": 0.008332896400711462,
              "154": -0.09443672992719344,
              "155": 0.04289549517922755,
              "156": 0.1251938766308418,
              "157": -0.03605748919644863,
              "158": -0.05717815775325908,
              "159": -0.09687325444251117,
              "160": -0.05596021832999801,
              "161": 0.08349603006313192,
              "162": -0.034549289320971,
              "163": 0.08706901700189192,
              "164": -0.014506255405731326,
              "165": -0.003456036414358652,
              "166": 0.061440193074767835,
              "167": 0.02460455188435931,
              "168": -0.000015223299138617683,
              "169": 0.0817433317884025,
              "170": -0.013794201824292689,
              "171": 0.07459668000419349,
              "172": -0.03556478637506553,
              "173": -0.022119982820048047,
              "174": 0.08287006676840589,
              "175": -0.07218863611884767,
              "176": -0.07512796476528635,
              "177": 0.0019954687017930033,
              "178": 0.0840267524132618,
              "179": 0.09903246508905936,
              "180": -0.0195142436222154,
              "181": 0.02552871966850113,
              "182": 0.05679283873025335,
              "183": -0.05257510315398794,
              "184": 0.08453155507424903,
              "185": -0.04747280477995876,
              "186": -0.09743038643471404,
              "187": -0.015971226226735986,
              "188": 0.05708798400261658,
              "189": -0.02247228335642327,
              "190": 0.1246366785108211,
              "191": 0.055551373954423784,
              "192": 0.00525804816816765,
              "193": 0.0309314485094068,
              "194": 0.04224204380894745,
              "195": -0.04254665349910289,
              "196": -0.018895882639702728,
              "197": 0.044078404852060445,
              "198": 0.006930662832948154,
              "199": -0.11567918030079448
            }
          },
          {
            "sx": 5,
            "sy": 5,
            "depth": 8,
            "w": {
              "0": -0.001241081347587378,
              "1": 0.010440493248356796,
              "2": 0.04368721385970363,
              "3": 0.059716602342121214,
              "4": -0.0074872917991310375,
              "5": -0.02876799128850747,
              "6": 0.12127851039852282,
              "7": 0.0005621269873840362,
              "8": -0.03798976813196849,
              "9": -0.0676158503784295,
              "10": 0.059695389447862915,
              "11": -0.03470889814288235,
              "12": 0.05456461770164956,
              "13": -0.04722333518595684,
              "14": -0.016511823340898586,
              "15": -0.03886309099248981,
              "16": -0.019665747356795795,
              "17": 0.14276146306923473,
              "18": 0.024084687972615537,
              "19": 0.06149697322895192,
              "20": 0.02459851026401731,
              "21": 0.011122011934916956,
              "22": -0.07266793618862717,
              "23": 0.018795192236738936,
              "24": -0.05546744452453645,
              "25": -0.03955936369041773,
              "26": -0.012280615232409194,
              "27": 0.1966337467045215,
              "28": 0.10140798293474466,
              "29": 0.10126840095895898,
              "30": -0.1595900047217835,
              "31": -0.10192258481338812,
              "32": 0.09556732087322566,
              "33": -0.0695998592582076,
              "34": -0.08152326411946441,
              "35": -0.043487508579692837,
              "36": -0.03208205025654076,
              "37": 0.0831491516948597,
              "38": 0.026059430274664425,
              "39": -0.021363106233273175,
              "40": -0.08893959083653664,
              "41": -0.07731364002981643,
              "42": 0.0703137138176027,
              "43": -0.07117199099032008,
              "44": -0.03594885700049257,
              "45": 0.029733652626336763,
              "46": -0.08877571148312452,
              "47": -0.026908571328590578,
              "48": -0.04967703480114648,
              "49": -0.11461462847286932,
              "50": 0.0363264557390422,
              "51": -0.07228893133760544,
              "52": 0.01555988074952746,
              "53": 0.08212665579829946,
              "54": -0.09383804636372682,
              "55": -0.059818561168534706,
              "56": 0.03166832752169927,
              "57": -0.029403437089084664,
              "58": 0.061401910278805746,
              "59": 0.05021680743018056,
              "60": 0.08285852962393968,
              "61": -0.0022446581761736287,
              "62": -0.13163087398172235,
              "63": -0.09868746355497594,
              "64": 0.07149768147002614,
              "65": 0.026718915736105634,
              "66": -0.14787549507315137,
              "67": 0.1589480781962124,
              "68": 0.025177264285793942,
              "69": 0.017307060505542957,
              "70": 0.005995374742572809,
              "71": -0.10512002189873235,
              "72": 0.15535190889892556,
              "73": -0.22452039828744086,
              "74": -0.06868200547073253,
              "75": -0.016069708010903277,
              "76": -0.14925340566033327,
              "77": 0.017316380099748438,
              "78": 0.11326783028154616,
              "79": 0.04386634369055986,
              "80": -0.030825864409777436,
              "81": -0.05376298222356108,
              "82": 0.07211514291264223,
              "83": 0.06299189870326201,
              "84": 0.05322954345778612,
              "85": 0.20397648816136493,
              "86": -0.05473163923167781,
              "87": -0.05669701799244326,
              "88": -0.014167789946177563,
