module.exports = {
  "layers": [
    {
      "out_sx": 24,
      "out_sy": 24,
      "out_depth": 1,
      "layer_type": "input",
      "in_act": {
        "sx": 28,
        "sy": 28,
        "depth": 1,
        "w": {
          "0": -0.5,
          "1": -0.5,
          "2": -0.5,
          "3": -0.5,
          "4": -0.5,
          "5": -0.5,
          "6": -0.5,
          "7": -0.5,
          "8": -0.5,
          "9": -0.5,
          "10": -0.5,
          "11": -0.5,
          "12": -0.5,
          "13": -0.5,
          "14": -0.5,
          "15": -0.5,
          "16": -0.5,
          "17": -0.5,
          "18": -0.5,
          "19": -0.5,
          "20": -0.5,
          "21": -0.5,
          "22": -0.5,
          "23": -0.5,
          "24": -0.5,
          "25": -0.5,
          "26": -0.5,
          "27": -0.5,
          "28": -0.5,
          "29": -0.5,
          "30": -0.5,
          "31": -0.5,
          "32": -0.5,
          "33": -0.5,
          "34": -0.5,
          "35": -0.5,
          "36": -0.5,
          "37": -0.5,
          "38": -0.5,
          "39": -0.5,
          "40": -0.5,
          "41": -0.5,
          "42": -0.5,
          "43": -0.5,
          "44": -0.5,
          "45": -0.5,
          "46": -0.5,
          "47": -0.5,
          "48": -0.5,
          "49": -0.5,
          "50": -0.5,
          "51": -0.5,
          "52": -0.5,
          "53": -0.5,
          "54": -0.5,
          "55": -0.5,
          "56": -0.5,
          "57": -0.5,
          "58": -0.5,
          "59": -0.5,
          "60": -0.5,
          "61": -0.5,
          "62": -0.5,
          "63": -0.5,
          "64": -0.5,
          "65": -0.5,
          "66": -0.5,
          "67": -0.5,
          "68": -0.5,
          "69": -0.5,
          "70": -0.5,
          "71": -0.5,
          "72": -0.5,
          "73": -0.5,
          "74": -0.5,
          "75": -0.5,
          "76": -0.5,
          "77": -0.5,
          "78": -0.5,
          "79": -0.5,
          "80": -0.5,
          "81": -0.5,
          "82": -0.5,
          "83": -0.5,
          "84": -0.5,
          "85": -0.5,
          "86": -0.5,
          "87": -0.5,
          "88": -0.5,
          "89": -0.5,
          "90": -0.5,
          "91": -0.5,
          "92": -0.5,
          "93": -0.5,
          "94": -0.5,
          "95": -0.5,
          "96": -0.5,
          "97": -0.5,
          "98": -0.5,
          "99": -0.5,
          "100": -0.5,
          "101": -0.5,
          "102": -0.5,
          "103": -0.5,
          "104": -0.5,
          "105": -0.5,
          "106": -0.5,
          "107": -0.5,
          "108": -0.5,
          "109": -0.5,
          "110": -0.5,
          "111": -0.5,
          "112": -0.5,
          "113": -0.5,
          "114": -0.5,
          "115": -0.5,
          "116": -0.5,
          "117": -0.5,
          "118": -0.5,
          "119": -0.5,
          "120": -0.5,
          "121": -0.5,
          "122": -0.5,
          "123": -0.5,
          "124": -0.5,
          "125": -0.5,
          "126": -0.39019607843137255,
          "127": -0.2529411764705882,
          "128": 0.09607843137254901,
          "129": 0.12352941176470589,
          "130": 0.2647058823529411,
          "131": -0.20588235294117646,
          "132": -0.5,
          "133": -0.5,
          "134": -0.5,
          "135": -0.5,
          "136": -0.5,
          "137": -0.5,
          "138": -0.5,
          "139": -0.5,
          "140": -0.5,
          "141": -0.5,
          "142": -0.5,
          "143": -0.5,
          "144": -0.5,
          "145": -0.5,
          "146": -0.5,
          "147": -0.5,
          "148": -0.5,
          "149": -0.5,
          "150": -0.5,
          "151": -0.2019607843137255,
          "152": 0.37058823529411766,
          "153": 0.37058823529411766,
          "154": 0.4254901960784314,
          "155": 0.49607843137254903,
          "156": 0.49607843137254903,
          "157": 0.49607843137254903,
          "158": 0.49607843137254903,
          "159": -0.02941176470588236,
          "160": -0.5,
          "161": -0.5,
          "162": -0.5,
          "163": -0.5,
          "164": -0.5,
          "165": -0.5,
          "166": -0.5,
          "167": -0.5,
          "168": -0.5,
          "169": -0.5,
          "170": -0.5,
          "171": -0.5,
          "172": -0.5,
          "173": -0.5,
          "174": -0.5,
          "175": -0.5,
          "176": -0.5,
          "177": -0.5,
          "178": -0.20980392156862743,
          "179": 0.4529411764705882,
          "180": 0.49607843137254903,
          "181": 0.49607843137254903,
          "182": 0.49607843137254903,
          "183": 0.49607843137254903,
          "184": 0.49607843137254903,
          "185": 0.484313725490196,
          "186": -0.10784313725490197,
          "187": -0.37450980392156863,
          "188": -0.5,
          "189": -0.5,
          "190": -0.5,
          "191": -0.5,
          "192": -0.5,
          "193": -0.5,
          "194": -0.5,
          "195": -0.5,
          "196": -0.5,
          "197": -0.5,
          "198": -0.5,
          "199": -0.5,
          "200": -0.5,
          "201": -0.5,
          "202": -0.5,
          "203": -0.5,
          "204": -0.5,
          "205": -0.4215686274509804,
          "206": 0.32352941176470584,
          "207": 0.49607843137254903,
          "208": 0.303921568627451,
          "209": -0.103921568627451,
          "210": -0.103921568627451,
          "211": -0.21764705882352942,
          "212": -0.4843137254901961,
          "213": -0.4843137254901961,
          "214": -0.5,
          "215": -0.5,
          "216": -0.5,
          "217": -0.5,
          "218": -0.5,
          "219": -0.5,
          "220": -0.5,
          "221": -0.5,
          "222": -0.5,
          "223": -0.5,
          "224": -0.5,
          "225": -0.5,
          "226": -0.5,
          "227": -0.5,
          "228": -0.5,
          "229": -0.5,
          "230": -0.5,
          "231": -0.5,
          "232": -0.48823529411764705,
          "233": 0.19019607843137254,
          "234": 0.49607843137254903,
          "235": 0.49607843137254903,
          "236": -0.07647058823529412,
          "237": -0.4019607843137255,
          "238": -0.4803921568627451,
          "239": -0.5,
          "240": -0.5,
          "241": -0.5,
          "242": -0.5,
          "243": -0.5,
          "244": -0.5,
          "245": -0.5,
          "246": -0.5,
          "247": -0.5,
          "248": -0.5,
          "249": -0.5,
          "250": -0.5,
          "251": -0.5,
          "252": -0.5,
          "253": -0.5,
          "254": -0.5,
          "255": -0.5,
          "256": -0.5,
          "257": -0.5,
          "258": -0.5,
          "259": -0.5,
          "260": -0.0019607843137254832,
          "261": 0.49607843137254903,
          "262": 0.49607843137254903,
          "263": 0.49607843137254903,
          "264": 0.49607843137254903,
          "265": 0.49607843137254903,
          "266": 0.2686274509803922,
          "267": 0.10392156862745094,
          "268": -0.21372549019607845,
          "269": -0.5,
          "270": -0.5,
          "271": -0.5,
          "272": -0.5,
          "273": -0.5,
          "274": -0.5,
          "275": -0.5,
          "276": -0.5,
          "277": -0.5,
          "278": -0.5,
          "279": -0.5,
          "280": -0.5,
          "281": -0.5,
          "282": -0.5,
          "283": -0.5,
          "284": -0.5,
          "285": -0.5,
          "286": -0.5,
          "287": -0.5,
          "288": 0.3509803921568627,
          "289": 0.49607843137254903,
          "290": 0.49607843137254903,
          "291": 0.49607843137254903,
          "292": 0.49607843137254903,
          "293": 0.49607843137254903,
          "294": 0.49607843137254903,
          "295": 0.49607843137254903,
          "296": 0.49215686274509807,
          "297": 0.16274509803921566,
          "298": -0.22156862745098038,
          "299": -0.5,
          "300": -0.5,
          "301": -0.5,
          "302": -0.5,
          "303": -0.5,
          "304": -0.5,
          "305": -0.5,
          "306": -0.5,
          "307": -0.5,
          "308": -0.5,
          "309": -0.5,
          "310": -0.5,
          "311": -0.5,
          "312": -0.5,
          "313": -0.5,
          "314": -0.5,
          "315": -0.5,
          "316": -0.033333333333333326,
          "317": 0.3156862745098039,
          "318": 0.19803921568627447,
          "319": -0.26862745098039215,
          "320": -0.33137254901960783,
          "321": -0.33137254901960783,
          "322": -0.31176470588235294,
          "323": 0.045098039215686225,
          "324": 0.4372549019607843,
          "325": 0.49607843137254903,
          "326": 0.4490196078431372,
          "327": -0.07647058823529412,
          "328": -0.5,
          "329": -0.5,
          "330": -0.5,
          "331": -0.5,
          "332": -0.5,
          "333": -0.5,
          "334": -0.5,
          "335": -0.5,
          "336": -0.5,
          "337": -0.5,
          "338": -0.5,
          "339": -0.5,
          "340": -0.5,
          "341": -0.5,
          "342": -0.5,
          "343": -0.5,
          "344": -0.5,
          "345": -0.5,
          "346": -0.5,
          "347": -0.5,
          "348": -0.5,
          "349": -0.5,
          "350": -0.5,
          "351": -0.5,
          "352": -0.33529411764705885,
          "353": 0.23333333333333328,
          "354": 0.49607843137254903,
          "355": 0.4529411764705882,
          "356": -0.21764705882352942,
          "357": -0.5,
          "358": -0.5,
          "359": -0.5,
          "360": -0.5,
          "361": -0.5,
          "362": -0.5,
          "363": -0.5,
          "364": -0.5,
          "365": -0.5,
          "366": -0.5,
          "367": -0.5,
          "368": -0.5,
          "369": -0.5,
          "370": -0.5,
          "371": -0.5,
          "372": -0.5,
          "373": -0.5,
          "374": -0.5,
          "375": -0.5,
          "376": -0.5,
          "377": -0.5,
          "378": -0.5,
          "379": -0.5,
          "380": -0.5,
          "381": -0.4607843137254902,
          "382": 0.1823529411764706,
          "383": 0.48039215686274506,
          "384": 0.4607843137254902,
          "385": -0.5,
          "386": -0.5,
          "387": -0.5,
          "388": -0.5,
          "389": -0.5,
          "390": -0.5,
          "391": -0.5,
          "392": -0.5,
          "393": -0.5,
          "394": -0.5,
          "395": -0.5,
          "396": -0.5,
          "397": -0.5,
          "398": -0.5,
          "399": -0.5,
          "400": -0.5,
          "401": -0.5,
          "402": -0.5,
          "403": -0.5,
          "404": -0.5,
          "405": -0.5,
          "406": -0.5,
          "407": -0.5,
          "408": -0.5,
          "409": -0.5,
          "410": -0.5,
          "411": 0.09999999999999998,
          "412": 0.4882352941176471,
          "413": -0.3431372549019608,
          "414": -0.5,
          "415": -0.5,
          "416": -0.5,
          "417": -0.5,
          "418": -0.5,
          "419": -0.5,
          "420": -0.5,
          "421": -0.5,
          "422": -0.5,
          "423": -0.5,
          "424": -0.5,
          "425": -0.5,
          "426": -0.5,
          "427": -0.5,
          "428": -0.5,
          "429": -0.5,
          "430": -0.5,
          "431": -0.5,
          "432": -0.5,
          "433": -0.5,
          "434": -0.5,
          "435": -0.5,
          "436": -0.5,
          "437": -0.5,
          "438": -0.5,
          "439": 0.02941176470588236,
          "440": 0.484313725490196,
          "441": -0.3862745098039216,
          "442": -0.5,
          "443": -0.5,
          "444": -0.5,
          "445": -0.5,
          "446": -0.5,
          "447": -0.5,
          "448": -0.5,
          "449": -0.5,
          "450": -0.5,
          "451": -0.5,
          "452": -0.5,
          "453": -0.5,
          "454": -0.5,
          "455": -0.5,
          "456": -0.4176470588235294,
          "457": -0.056862745098039236,
          "458": -0.4803921568627451,
          "459": -0.5,
          "460": -0.5,
          "461": -0.5,
          "462": -0.5,
          "463": -0.5,
          "464": -0.5,
          "465": -0.5,
          "466": -0.5,
          "467": 0.23725490196078436,
          "468": 0.48039215686274506,
          "469": -0.5,
          "470": -0.5,
          "471": -0.5,
          "472": -0.5,
          "473": -0.5,
          "474": -0.5,
          "475": -0.5,
          "476": -0.5,
          "477": -0.5,
          "478": -0.5,
          "479": -0.5,
          "480": -0.5,
          "481": -0.5,
          "482": -0.5,
          "483": -0.37450980392156863,
          "484": 0.33529411764705885,
          "485": 0.06862745098039214,
          "486": -0.49215686274509807,
          "487": -0.5,
          "488": -0.5,
          "489": -0.5,
          "490": -0.5,
          "491": -0.5,
          "492": -0.5,
          "493": -0.5,
          "494": -0.48823529411764705,
          "495": 0.40980392156862744,
          "496": 0.4647058823529412,
          "497": -0.5,
          "498": -0.5,
          "499": -0.5,
          "500": -0.5,
          "501": -0.5,
          "502": -0.5,
          "503": -0.5,
          "504": -0.5,
          "505": -0.5,
          "506": -0.5,
          "507": -0.5,
          "508": -0.5,
          "509": -0.5,
          "510": -0.5,
          "511": 0.484313725490196,
          "512": 0.49607843137254903,
          "513": -0.21764705882352942,
          "514": -0.5,
          "515": -0.5,
          "516": -0.5,
          "517": -0.5,
          "518": -0.5,
          "519": -0.5,
          "520": -0.5,
          "521": -0.5,
          "522": 0.033333333333333326,
          "523": 0.49607843137254903,
          "524": -0.0019607843137254832,
          "525": -0.5,
          "526": -0.5,
          "527": -0.5,
          "528": -0.5,
          "529": -0.5,
          "530": -0.5,
          "531": -0.5,
          "532": -0.5,
          "533": -0.5,
          "534": -0.5,
          "535": -0.5,
          "536": -0.5,
          "537": -0.5,
          "538": -0.17058823529411765,
          "539": 0.49607843137254903,
          "540": 0.4607843137254902,
          "541": -0.32352941176470584,
          "542": -0.5,
          "543": -0.5,
          "544": -0.5,
          "545": -0.5,
          "546": -0.5,
          "547": -0.5,
          "548": -0.5,
          "549": -0.20588235294117646,
          "550": 0.46862745098039216,
          "551": 0.35882352941176465,
          "552": -0.3941176470588235,
          "553": -0.5,
          "554": -0.5,
          "555": -0.5,
          "556": -0.5,
          "557": -0.5,
          "558": -0.5,
          "559": -0.5,
          "560": -0.5,
          "561": -0.5,
          "562": -0.5,
          "563": -0.5,
          "564": -0.5,
          "565": -0.5,
          "566": -0.2803921568627451,
          "567": 0.49215686274509807,
          "568": 0.49607843137254903,
          "569": 0.06470588235294117,
          "570": -0.4647058823529412,
          "571": -0.49607843137254903,
          "572": -0.5,
          "573": -0.5,
          "574": -0.49607843137254903,
          "575": -0.4803921568627451,
          "576": -0.06470588235294117,
          "577": 0.4529411764705882,
          "578": 0.484313725490196,
          "579": -0.1823529411764706,
          "580": -0.5,
          "581": -0.5,
          "582": -0.5,
          "583": -0.5,
          "584": -0.5,
          "585": -0.5,
          "586": -0.5,
          "587": -0.5,
          "588": -0.5,
          "589": -0.5,
          "590": -0.5,
          "591": -0.5,
          "592": -0.5,
          "593": -0.5,
          "594": -0.5,
          "595": 0.07647058823529407,
          "596": 0.4607843137254902,
          "597": 0.49607843137254903,
          "598": 0.49607843137254903,
          "599": 0.20196078431372544,
          "600": -0.11960784313725492,
          "601": -0.16274509803921566,
          "602": 0.16274509803921566,
          "603": 0.49607843137254903,
          "604": 0.49607843137254903,
          "605": 0.4725490196078431,
          "606": -0.3784313725490196,
          "607": -0.5,
          "608": -0.5,
          "609": -0.5,
          "610": -0.5,
          "611": -0.5,
          "612": -0.5,
          "613": -0.5,
          "614": -0.5,
          "615": -0.5,
          "616": -0.5,
          "617": -0.5,
          "618": -0.5,
          "619": -0.5,
          "620": -0.5,
          "621": -0.5,
          "622": -0.5,
          "623": -0.5,
          "624": -0.19019607843137254,
          "625": 0.4607843137254902,
          "626": 0.5,
          "627": 0.5,
          "628": 0.5,
          "629": 0.5,
          "630": 0.49607843137254903,
          "631": 0.49607843137254903,
          "632": 0.4254901960784314,
          "633": -0.2372549019607843,
          "634": -0.5,
          "635": -0.5,
          "636": -0.5,
          "637": -0.5,
          "638": -0.5,
          "639": -0.5,
          "640": -0.5,
          "641": -0.5,
          "642": -0.5,
          "643": -0.5,
          "644": -0.5,
          "645": -0.5,
          "646": -0.5,
          "647": -0.5,
          "648": -0.5,
          "649": -0.5,
          "650": -0.5,
          "651": -0.5,
          "652": -0.5,
          "653": -0.32352941176470584,
          "654": 0.3274509803921568,
          "655": 0.49607843137254903,
          "656": 0.49607843137254903,
          "657": 0.3549019607843137,
          "658": 0.3313725490196079,
          "659": 0.11960784313725492,
          "660": -0.3627450980392157,
          "661": -0.5,
          "662": -0.5,
          "663": -0.5,
          "664": -0.5,
          "665": -0.5,
          "666": -0.5,
          "667": -0.5,
          "668": -0.5,
          "669": -0.5,
          "670": -0.5,
          "671": -0.5,
          "672": -0.5,
          "673": -0.5,
          "674": -0.5,
          "675": -0.5,
          "676": -0.5,
          "677": -0.5,
          "678": -0.5,
          "679": -0.5,
          "680": -0.5,
          "681": -0.5,
          "682": -0.5,
          "683": -0.5,
          "684": -0.5,
          "685": -0.5,
          "686": -0.5,
          "687": -0.5,
          "688": -0.5,
          "689": -0.5,
          "690": -0.5,
          "691": -0.5,
          "692": -0.5,
          "693": -0.5,
          "694": -0.5,
          "695": -0.5,
          "696": -0.5,
          "697": -0.5,
          "698": -0.5,
          "699": -0.5,
          "700": -0.5,
          "701": -0.5,
          "702": -0.5,
          "703": -0.5,
          "704": -0.5,
          "705": -0.5,
          "706": -0.5,
          "707": -0.5,
          "708": -0.5,
          "709": -0.5,
          "710": -0.5,
          "711": -0.5,
          "712": -0.5,
          "713": -0.5,
          "714": -0.5,
          "715": -0.5,
          "716": -0.5,
          "717": -0.5,
          "718": -0.5,
          "719": -0.5,
          "720": -0.5,
          "721": -0.5,
          "722": -0.5,
          "723": -0.5,
          "724": -0.5,
          "725": -0.5,
          "726": -0.5,
          "727": -0.5,
          "728": -0.5,
          "729": -0.5,
          "730": -0.5,
          "731": -0.5,
          "732": -0.5,
          "733": -0.5,
          "734": -0.5,
          "735": -0.5,
          "736": -0.5,
          "737": -0.5,
          "738": -0.5,
          "739": -0.5,
          "740": -0.5,
          "741": -0.5,
          "742": -0.5,
          "743": -0.5,
          "744": -0.5,
          "745": -0.5,
          "746": -0.5,
          "747": -0.5,
          "748": -0.5,
          "749": -0.5,
          "750": -0.5,
          "751": -0.5,
          "752": -0.5,
          "753": -0.5,
          "754": -0.5,
          "755": -0.5,
          "756": -0.5,
          "757": -0.5,
          "758": -0.5,
          "759": -0.5,
          "760": -0.5,
          "761": -0.5,
          "762": -0.5,
          "763": -0.5,
          "764": -0.5,
          "765": -0.5,
          "766": -0.5,
          "767": -0.5,
          "768": -0.5,
          "769": -0.5,
          "770": -0.5,
          "771": -0.5,
          "772": -0.5,
          "773": -0.5,
          "774": -0.5,
          "775": -0.5,
          "776": -0.5,
          "777": -0.5,
          "778": -0.5,
          "779": -0.5,
          "780": -0.5,
          "781": -0.5,
          "782": -0.5,
          "783": -0.5
        },
        "dw": {
          "0": 0,
          "1": 0,
          "2": 0,
          "3": 0,
          "4": 0,
          "5": 0,
          "6": 0,
          "7": 0,
          "8": 0,
          "9": 0,
          "10": 0,
          "11": 0,
          "12": 0,
          "13": 0,
          "14": 0,
          "15": 0,
          "16": 0,
          "17": 0,
          "18": 0,
          "19": 0,
          "20": 0,
          "21": 0,
          "22": 0,
          "23": 0,
          "24": 0,
          "25": 0,
          "26": 0,
          "27": 0,
          "28": 0,
          "29": 0,
          "30": 0,
          "31": 0,
          "32": 0,
          "33": 0,
          "34": 0,
          "35": 0,
          "36": 0,
          "37": 0,
          "38": 0,
          "39": 0,
          "40": 0,
          "41": 0,
          "42": 0,
          "43": 0,
          "44": 0,
          "45": 0,
          "46": 0,
          "47": 0,
          "48": 0,
          "49": 0,
          "50": 0,
          "51": 0,
          "52": 0,
          "53": 0,
          "54": 0,
          "55": 0,
          "56": 0,
          "57": 0,
          "58": 0,
          "59": 0,
          "60": 0,
          "61": 0,
          "62": 0,
          "63": 0,
          "64": 0,
          "65": 0,
          "66": 0,
          "67": 0,
          "68": 0,
          "69": 0,
          "70": 0,
          "71": 0,
          "72": 0,
          "73": 0,
          "74": 0,
          "75": 0,
          "76": 0,
          "77": 0,
          "78": 0,
          "79": 0,
          "80": 0,
          "81": 0,
          "82": 0,
          "83": 0,
          "84": 0,
          "85": 0,
          "86": 0,
          "87": 0,
          "88": 0,
          "89": 0,
          "90": 0,
          "91": 0,
          "92": 0,
          "93": 0,
          "94": 0,
          "95": 0,
          "96": 0,
          "97": 0,
          "98": 0,
          "99": 0,
          "100": 0,
          "101": 0,
          "102": 0,
          "103": 0,
          "104": 0,
          "105": 0,
          "106": 0,
          "107": 0,
          "108": 0,
          "109": 0,
          "110": 0,
          "111": 0,
          "112": 0,
          "113": 0,
          "114": 0,
          "115": 0,
          "116": 0,
          "117": 0,
          "118": 0,
          "119": 0,
          "120": 0,
          "121": 0,
          "122": 0,
          "123": 0,
          "124": 0,
          "125": 0,
          "126": 0,
          "127": 0,
          "128": 0,
          "129": 0,
          "130": 0,
          "131": 0,
          "132": 0,
          "133": 0,
          "134": 0,
          "135": 0,
          "136": 0,
          "137": 0,
          "138": 0,
          "139": 0,
          "140": 0,
          "141": 0,
          "142": 0,
          "143": 0,
          "144": 0,
          "145": 0,
          "146": 0,
          "147": 0,
          "148": 0,
          "149": 0,
          "150": 0,
          "151": 0,
          "152": 0,
          "153": 0,
          "154": 0,
          "155": 0,
          "156": 0,
          "157": 0,
          "158": 0,
          "159": 0,
          "160": 0,
          "161": 0,
          "162": 0,
          "163": 0,
          "164": 0,
          "165": 0,
          "166": 0,
          "167": 0,
          "168": 0,
          "169": 0,
          "170": 0,
          "171": 0,
          "172": 0,
          "173": 0,
          "174": 0,
          "175": 0,
          "176": 0,
          "177": 0,
          "178": 0,
          "179": 0,
          "180": 0,
          "181": 0,
          "182": 0,
          "183": 0,
          "184": 0,
          "185": 0,
          "186": 0,
          "187": 0,
          "188": 0,
          "189": 0,
          "190": 0,
          "191": 0,
          "192": 0,
          "193": 0,
          "194": 0,
          "195": 0,
          "196": 0,
          "197": 0,
          "198": 0,
          "199": 0,
          "200": 0,
          "201": 0,
          "202": 0,
          "203": 0,
          "204": 0,
          "205": 0,
          "206": 0,
          "207": 0,
          "208": 0,
          "209": 0,
          "210": 0,
          "211": 0,
          "212": 0,
          "213": 0,
          "214": 0,
          "215": 0,
          "216": 0,
          "217": 0,
          "218": 0,
          "219": 0,
          "220": 0,
          "221": 0,
          "222": 0,
          "223": 0,
          "224": 0,
          "225": 0,
          "226": 0,
          "227": 0,
          "228": 0,
          "229": 0,
          "230": 0,
          "231": 0,
          "232": 0,
          "233": 0,
          "234": 0,
          "235": 0,
          "236": 0,
          "237": 0,
          "238": 0,
          "239": 0,
          "240": 0,
          "241": 0,
          "242": 0,
          "243": 0,
          "244": 0,
          "245": 0,
          "246": 0,
          "247": 0,
          "248": 0,
          "249": 0,
          "250": 0,
          "251": 0,
          "252": 0,
          "253": 0,
          "254": 0,
          "255": 0,
          "256": 0,
          "257": 0,
          "258": 0,
          "259": 0,
          "260": 0,
          "261": 0,
          "262": 0,
          "263": 0,
          "264": 0,
          "265": 0,
          "266": 0,
          "267": 0,
          "268": 0,
          "269": 0,
          "270": 0,
          "271": 0,
          "272": 0,
          "273": 0,
          "274": 0,
          "275": 0,
          "276": 0,
          "277": 0,
          "278": 0,
          "279": 0,
          "280": 0,
          "281": 0,
          "282": 0,
          "283": 0,
          "284": 0,
          "285": 0,
          "286": 0,
          "287": 0,
          "288": 0,
          "289": 0,
          "290": 0,
          "291": 0,
          "292": 0,
          "293": 0,
          "294": 0,
          "295": 0,
          "296": 0,
          "297": 0,
          "298": 0,
          "299": 0,
          "300": 0,
          "301": 0,
          "302": 0,
          "303": 0,
          "304": 0,
          "305": 0,
          "306": 0,
          "307": 0,
          "308": 0,
          "309": 0,
          "310": 0,
          "311": 0,
          "312": 0,
          "313": 0,
          "314": 0,
          "315": 0,
          "316": 0,
          "317": 0,
          "318": 0,
          "319": 0,
          "320": 0,
          "321": 0,
          "322": 0,
          "323": 0,
          "324": 0,
          "325": 0,
          "326": 0,
          "327": 0,
          "328": 0,
          "329": 0,
          "330": 0,
          "331": 0,
          "332": 0,
          "333": 0,
          "334": 0,
          "335": 0,
          "336": 0,
          "337": 0,
          "338": 0,
          "339": 0,
          "340": 0,
          "341": 0,
          "342": 0,
          "343": 0,
          "344": 0,
          "345": 0,
          "346": 0,
          "347": 0,
          "348": 0,
          "349": 0,
          "350": 0,
          "351": 0,
          "352": 0,
          "353": 0,
          "354": 0,
          "355": 0,
          "356": 0,
          "357": 0,
          "358": 0,
          "359": 0,
          "360": 0,
          "361": 0,
          "362": 0,
          "363": 0,
          "364": 0,
          "365": 0,
          "366": 0,
          "367": 0,
          "368": 0,
          "369": 0,
          "370": 0,
          "371": 0,
          "372": 0,
          "373": 0,
          "374": 0,
          "375": 0,
          "376": 0,
          "377": 0,
          "378": 0,
          "379": 0,
          "380": 0,
          "381": 0,
          "382": 0,
          "383": 0,
          "384": 0,
          "385": 0,
          "386": 0,
          "387": 0,
          "388": 0,
          "389": 0,
          "390": 0,
          "391": 0,
          "392": 0,
          "393": 0,
          "394": 0,
          "395": 0,
          "396": 0,
          "397": 0,
          "398": 0,
          "399": 0,
          "400": 0,
          "401": 0,
          "402": 0,
          "403": 0,
          "404": 0,
          "405": 0,
          "406": 0,
          "407": 0,
          "408": 0,
          "409": 0,
          "410": 0,
          "411": 0,
          "412": 0,
          "413": 0,
          "414": 0,
          "415": 0,
          "416": 0,
          "417": 0,
          "418": 0,
          "419": 0,
          "420": 0,
          "421": 0,
          "422": 0,
          "423": 0,
          "424": 0,
          "425": 0,
          "426": 0,
          "427": 0,
          "428": 0,
          "429": 0,
          "430": 0,
          "431": 0,
          "432": 0,
          "433": 0,
          "434": 0,
          "435": 0,
          "436": 0,
          "437": 0,
          "438": 0,
          "439": 0,
          "440": 0,
          "441": 0,
          "442": 0,
          "443": 0,
          "444": 0,
          "445": 0,
          "446": 0,
          "447": 0,
          "448": 0,
          "449": 0,
          "450": 0,
          "451": 0,
          "452": 0,
          "453": 0,
          "454": 0,
          "455": 0,
          "456": 0,
          "457": 0,
          "458": 0,
          "459": 0,
          "460": 0,
          "461": 0,
          "462": 0,
          "463": 0,
          "464": 0,
          "465": 0,
          "466": 0,
          "467": 0,
          "468": 0,
          "469": 0,
          "470": 0,
          "471": 0,
          "472": 0,
          "473": 0,
          "474": 0,
          "475": 0,
          "476": 0,
          "477": 0,
          "478": 0,
          "479": 0,
          "480": 0,
          "481": 0,
          "482": 0,
          "483": 0,
          "484": 0,
          "485": 0,
          "486": 0,
          "487": 0,
          "488": 0,
          "489": 0,
          "490": 0,
          "491": 0,
          "492": 0,
          "493": 0,
          "494": 0,
          "495": 0,
          "496": 0,
          "497": 0,
          "498": 0,
          "499": 0,
          "500": 0,
          "501": 0,
          "502": 0,
          "503": 0,
          "504": 0,
          "505": 0,
          "506": 0,
          "507": 0,
          "508": 0,
          "509": 0,
          "510": 0,
          "511": 0,
          "512": 0,
          "513": 0,
          "514": 0,
          "515": 0,
          "516": 0,
          "517": 0,
          "518": 0,
          "519": 0,
          "520": 0,
          "521": 0,
          "522": 0,
          "523": 0,
          "524": 0,
          "525": 0,
          "526": 0,
          "527": 0,
          "528": 0,
          "529": 0,
          "530": 0,
          "531": 0,
          "532": 0,
          "533": 0,
          "534": 0,
          "535": 0,
          "536": 0,
          "537": 0,
          "538": 0,
          "539": 0,
          "540": 0,
          "541": 0,
          "542": 0,
          "543": 0,
          "544": 0,
          "545": 0,
          "546": 0,
          "547": 0,
          "548": 0,
          "549": 0,
          "550": 0,
          "551": 0,
          "552": 0,
          "553": 0,
          "554": 0,
          "555": 0,
          "556": 0,
          "557": 0,
          "558": 0,
          "559": 0,
          "560": 0,
          "561": 0,
          "562": 0,
          "563": 0,
          "564": 0,
          "565": 0,
          "566": 0,
          "567": 0,
          "568": 0,
          "569": 0,
          "570": 0,
          "571": 0,
          "572": 0,
          "573": 0,
          "574": 0,
          "575": 0,
          "576": 0,
          "577": 0,
          "578": 0,
          "579": 0,
          "580": 0,
          "581": 0,
          "582": 0,
          "583": 0,
          "584": 0,
          "585": 0,
          "586": 0,
          "587": 0,
          "588": 0,
          "589": 0,
          "590": 0,
          "591": 0,
          "592": 0,
          "593": 0,
          "594": 0,
          "595": 0,
          "596": 0,
          "597": 0,
          "598": 0,
          "599": 0,
          "600": 0,
          "601": 0,
          "602": 0,
          "603": 0,
          "604": 0,
          "605": 0,
          "606": 0,
          "607": 0,
          "608": 0,
          "609": 0,
          "610": 0,
          "611": 0,
          "612": 0,
          "613": 0,
          "614": 0,
          "615": 0,
          "616": 0,
          "617": 0,
          "618": 0,
          "619": 0,
          "620": 0,
          "621": 0,
          "622": 0,
          "623": 0,
          "624": 0,
          "625": 0,
          "626": 0,
          "627": 0,
          "628": 0,
          "629": 0,
          "630": 0,
          "631": 0,
          "632": 0,
          "633": 0,
          "634": 0,
          "635": 0,
          "636": 0,
          "637": 0,
          "638": 0,
          "639": 0,
          "640": 0,
          "641": 0,
          "642": 0,
          "643": 0,
          "644": 0,
          "645": 0,
          "646": 0,
          "647": 0,
          "648": 0,
          "649": 0,
          "650": 0,
          "651": 0,
          "652": 0,
          "653": 0,
          "654": 0,
          "655": 0,
          "656": 0,
          "657": 0,
          "658": 0,
          "659": 0,
          "660": 0,
          "661": 0,
          "662": 0,
          "663": 0,
          "664": 0,
          "665": 0,
          "666": 0,
          "667": 0,
          "668": 0,
          "669": 0,
          "670": 0,
          "671": 0,
          "672": 0,
          "673": 0,
          "674": 0,
          "675": 0,
          "676": 0,
          "677": 0,
          "678": 0,
          "679": 0,
          "680": 0,
          "681": 0,
          "682": 0,
          "683": 0,
          "684": 0,
          "685": 0,
          "686": 0,
          "687": 0,
          "688": 0,
          "689": 0,
          "690": 0,
          "691": 0,
          "692": 0,
          "693": 0,
          "694": 0,
          "695": 0,
          "696": 0,
          "697": 0,
          "698": 0,
          "699": 0,
          "700": 0,
          "701": 0,
          "702": 0,
          "703": 0,
          "704": 0,
          "705": 0,
          "706": 0,
          "707": 0,
          "708": 0,
          "709": 0,
          "710": 0,
          "711": 0,
          "712": 0,
          "713": 0,
          "714": 0,
          "715": 0,
          "716": 0,
          "717": 0,
          "718": 0,
          "719": 0,
          "720": 0,
          "721": 0,
          "722": 0,
          "723": 0,
          "724": 0,
          "725": 0,
          "726": 0,
          "727": 0,
          "728": 0,
          "729": 0,
          "730": 0,
          "731": 0,
          "732": 0,
          "733": 0,
          "734": 0,
          "735": 0,
          "736": 0,
          "737": 0,
          "738": 0,
          "739": 0,
          "740": 0,
          "741": 0,
          "742": 0,
          "743": 0,
          "744": 0,
          "745": 0,
          "746": 0,
          "747": 0,
          "748": 0,
          "749": 0,
          "750": 0,
          "751": 0,
          "752": 0,
          "753": 0,
          "754": 0,
          "755": 0,
          "756": 0,
          "757": 0,
          "758": 0,
          "759": 0,
          "760": 0,
          "761": 0,
          "762": 0,
          "763": 0,
          "764": 0,
          "765": 0,
          "766": 0,
          "767": 0,
          "768": 0,
          "769": 0,
          "770": 0,
          "771": 0,
          "772": 0,
          "773": 0,
          "774": 0,
          "775": 0,
          "776": 0,
          "777": 0,
          "778": 0,
          "779": 0,
          "780": 0,
          "781": 0,
          "782": 0,
          "783": 0
        }
      },
      "out_act": {
        "sx": 28,
        "sy": 28,
        "depth": 1,
        "w": {
          "0": -0.5,
          "1": -0.5,
          "2": -0.5,
          "3": -0.5,
          "4": -0.5,
          "5": -0.5,
          "6": -0.5,
          "7": -0.5,
          "8": -0.5,
          "9": -0.5,
          "10": -0.5,
          "11": -0.5,
          "12": -0.5,
          "13": -0.5,
          "14": -0.5,
          "15": -0.5,
          "16": -0.5,
          "17": -0.5,
          "18": -0.5,
          "19": -0.5,
          "20": -0.5,
          "21": -0.5,
          "22": -0.5,
          "23": -0.5,
          "24": -0.5,
          "25": -0.5,
          "26": -0.5,
          "27": -0.5,
          "28": -0.5,
          "29": -0.5,
          "30": -0.5,
          "31": -0.5,
          "32": -0.5,
          "33": -0.5,
          "34": -0.5,
          "35": -0.5,
          "36": -0.5,
          "37": -0.5,
          "38": -0.5,
          "39": -0.5,
          "40": -0.5,
          "41": -0.5,
          "42": -0.5,
          "43": -0.5,
          "44": -0.5,
          "45": -0.5,
          "46": -0.5,
          "47": -0.5,
          "48": -0.5,
          "49": -0.5,
          "50": -0.5,
          "51": -0.5,
          "52": -0.5,
          "53": -0.5,
          "54": -0.5,
          "55": -0.5,
          "56": -0.5,
          "57": -0.5,
          "58": -0.5,
          "59": -0.5,
          "60": -0.5,
          "61": -0.5,
          "62": -0.5,
          "63": -0.5,
          "64": -0.5,
          "65": -0.5,
          "66": -0.5,
          "67": -0.5,
          "68": -0.5,
          "69": -0.5,
          "70": -0.5,
          "71": -0.5,
          "72": -0.5,
          "73": -0.5,
          "74": -0.5,
          "75": -0.5,
          "76": -0.5,
          "77": -0.5,
          "78": -0.5,
          "79": -0.5,
          "80": -0.5,
          "81": -0.5,
          "82": -0.5,
          "83": -0.5,
          "84": -0.5,
          "85": -0.5,
          "86": -0.5,
          "87": -0.5,
          "88": -0.5,
          "89": -0.5,
          "90": -0.5,
          "91": -0.5,
          "92": -0.5,
          "93": -0.5,
          "94": -0.5,
          "95": -0.5,
          "96": -0.5,
          "97": -0.5,
          "98": -0.5,
          "99": -0.5,
          "100": -0.5,
          "101": -0.5,
          "102": -0.5,
          "103": -0.5,
          "104": -0.5,
          "105": -0.5,
          "106": -0.5,
          "107": -0.5,
          "108": -0.5,
          "109": -0.5,
          "110": -0.5,
          "111": -0.5,
          "112": -0.5,
          "113": -0.5,
          "114": -0.5,
          "115": -0.5,
          "116": -0.5,
          "117": -0.5,
          "118": -0.5,
          "119": -0.5,
          "120": -0.5,
          "121": -0.5,
          "122": -0.5,
          "123": -0.5,
          "124": -0.5,
          "125": -0.5,
          "126": -0.39019607843137255,
          "127": -0.2529411764705882,
          "128": 0.09607843137254901,
          "129": 0.12352941176470589,
          "130": 0.2647058823529411,
          "131": -0.20588235294117646,
          "132": -0.5,
          "133": -0.5,
          "134": -0.5,
          "135": -0.5,
          "136": -0.5,
          "137": -0.5,
          "138": -0.5,
          "139": -0.5,
          "140": -0.5,
          "141": -0.5,
          "142": -0.5,
          "143": -0.5,
          "144": -0.5,
          "145": -0.5,
          "146": -0.5,
          "147": -0.5,
          "148": -0.5,
          "149": -0.5,
          "150": -0.5,
          "151": -0.2019607843137255,
          "152": 0.37058823529411766,
          "153": 0.37058823529411766,
          "154": 0.4254901960784314,
          "155": 0.49607843137254903,
          "156": 0.49607843137254903,
          "157": 0.49607843137254903,
          "158": 0.49607843137254903,
          "159": -0.02941176470588236,
          "160": -0.5,
          "161": -0.5,
          "162": -0.5,
          "163": -0.5,
          "164": -0.5,
          "165": -0.5,
          "166": -0.5,
          "167": -0.5,
          "168": -0.5,
          "169": -0.5,
          "170": -0.5,
          "171": -0.5,
          "172": -0.5,
          "173": -0.5,
          "174": -0.5,
          "175": -0.5,
          "176": -0.5,
          "177": -0.5,
          "178": -0.20980392156862743,
          "179": 0.4529411764705882,
          "180": 0.49607843137254903,
          "181": 0.49607843137254903,
          "182": 0.49607843137254903,
          "183": 0.49607843137254903,
          "184": 0.49607843137254903,
          "185": 0.484313725490196,
          "186": -0.10784313725490197,
          "187": -0.37450980392156863,
          "188": -0.5,
          "189": -0.5,
          "190": -0.5,
          "191": -0.5,
          "192": -0.5,
          "193": -0.5,
          "194": -0.5,
          "195": -0.5,
          "196": -0.5,
          "197": -0.5,
          "198": -0.5,
          "199": -0.5,
          "200": -0.5,
          "201": -0.5,
          "202": -0.5,
          "203": -0.5,
          "204": -0.5,
          "205": -0.4215686274509804,
          "206": 0.32352941176470584,
          "207": 0.49607843137254903,
          "208": 0.303921568627451,
          "209": -0.103921568627451,
          "210": -0.103921568627451,
          "211": -0.21764705882352942,
          "212": -0.4843137254901961,
          "213": -0.4843137254901961,
          "214": -0.5,
          "215": -0.5,
          "216": -0.5,
          "217": -0.5,
          "218": -0.5,
          "219": -0.5,
          "220": -0.5,
          "221": -0.5,
          "222": -0.5,
          "223": -0.5,
          "224": -0.5,
          "225": -0.5,
          "226": -0.5,
          "227": -0.5,
          "228": -0.5,
          "229": -0.5,
          "230": -0.5,
          "231": -0.5,
          "232": -0.48823529411764705,
          "233": 0.19019607843137254,
          "234": 0.49607843137254903,
          "235": 0.49607843137254903,
          "236": -0.07647058823529412,
          "237": -0.4019607843137255,
          "238": -0.4803921568627451,
          "239": -0.5,
          "240": -0.5,
          "241": -0.5,
          "242": -0.5,
          "243": -0.5,
          "244": -0.5,
          "245": -0.5,
          "246": -0.5,
          "247": -0.5,
          "248": -0.5,
          "249": -0.5,
          "250": -0.5,
          "251": -0.5,
          "252": -0.5,
          "253": -0.5,
          "254": -0.5,
          "255": -0.5,
          "256": -0.5,
          "257": -0.5,
          "258": -0.5,
          "259": -0.5,
          "260": -0.0019607843137254832,
          "261": 0.49607843137254903,
          "262": 0.49607843137254903,
          "263": 0.49607843137254903,
          "264": 0.49607843137254903,
          "265": 0.49607843137254903,
          "266": 0.2686274509803922,
          "267": 0.10392156862745094,
          "268": -0.21372549019607845,
          "269": -0.5,
          "270": -0.5,
          "271": -0.5,
          "272": -0.5,
          "273": -0.5,
          "274": -0.5,
          "275": -0.5,
          "276": -0.5,
          "277": -0.5,
          "278": -0.5,
          "279": -0.5,
          "280": -0.5,
          "281": -0.5,
          "282": -0.5,
          "283": -0.5,
          "284": -0.5,
          "285": -0.5,
          "286": -0.5,
          "287": -0.5,
          "288": 0.3509803921568627,
          "289": 0.49607843137254903,
          "290": 0.49607843137254903,
          "291": 0.49607843137254903,
          "292": 0.49607843137254903,
          "293": 0.49607843137254903,
          "294": 0.49607843137254903,
          "295": 0.49607843137254903,
          "296": 0.49215686274509807,
          "297": 0.16274509803921566,
          "298": -0.22156862745098038,
          "299": -0.5,
          "300": -0.5,
          "301": -0.5,
          "302": -0.5,
          "303": -0.5,
          "304": -0.5,
          "305": -0.5,
          "306": -0.5,
          "307": -0.5,
          "308": -0.5,
          "309": -0.5,
          "310": -0.5,
          "311": -0.5,
          "312": -0.5,
          "313": -0.5,
          "314": -0.5,
          "315": -0.5,
          "316": -0.033333333333333326,
          "317": 0.3156862745098039,
          "318": 0.19803921568627447,
          "319": -0.26862745098039215,
          "320": -0.33137254901960783,
          "321": -0.33137254901960783,
          "322": -0.31176470588235294,
          "323": 0.045098039215686225,
          "324": 0.4372549019607843,
          "325": 0.49607843137254903,
          "326": 0.4490196078431372,
          "327": -0.07647058823529412,
          "328": -0.5,
          "329": -0.5,
          "330": -0.5,
          "331": -0.5,
          "332": -0.5,
          "333": -0.5,
          "334": -0.5,
          "335": -0.5,
          "336": -0.5,
          "337": -0.5,
          "338": -0.5,
          "339": -0.5,
          "340": -0.5,
          "341": -0.5,
          "342": -0.5,
          "343": -0.5,
          "344": -0.5,
          "345": -0.5,
          "346": -0.5,
          "347": -0.5,
          "348": -0.5,
          "349": -0.5,
          "350": -0.5,
          "351": -0.5,
          "352": -0.33529411764705885,
          "353": 0.23333333333333328,
          "354": 0.49607843137254903,
          "355": 0.4529411764705882,
          "356": -0.21764705882352942,
          "357": -0.5,
          "358": -0.5,
          "359": -0.5,
          "360": -0.5,
          "361": -0.5,
          "362": -0.5,
          "363": -0.5,
          "364": -0.5,
          "365": -0.5,
          "366": -0.5,
          "367": -0.5,
          "368": -0.5,
          "369": -0.5,
          "370": -0.5,
          "371": -0.5,
          "372": -0.5,
          "373": -0.5,
          "374": -0.5,
          "375": -0.5,
          "376": -0.5,
          "377": -0.5,
          "378": -0.5,
          "379": -0.5,
          "380": -0.5,
          "381": -0.4607843137254902,
          "382": 0.1823529411764706,
          "383": 0.48039215686274506,
          "384": 0.4607843137254902,
          "385": -0.5,
          "386": -0.5,
          "387": -0.5,
          "388": -0.5,
          "389": -0.5,
          "390": -0.5,
          "391": -0.5,
          "392": -0.5,
          "393": -0.5,
          "394": -0.5,
          "395": -0.5,
          "396": -0.5,
          "397": -0.5,
          "398": -0.5,
          "399": -0.5,
          "400": -0.5,
          "401": -0.5,
          "402": -0.5,
          "403": -0.5,
          "404": -0.5,
          "405": -0.5,
          "406": -0.5,
          "407": -0.5,
          "408": -0.5,
          "409": -0.5,
          "410": -0.5,
          "411": 0.09999999999999998,
          "412": 0.4882352941176471,
          "413": -0.3431372549019608,
          "414": -0.5,
          "415": -0.5,
          "416": -0.5,
          "417": -0.5,
          "418": -0.5,
          "419": -0.5,
          "420": -0.5,
          "421": -0.5,
          "422": -0.5,
          "423": -0.5,
          "424": -0.5,
          "425": -0.5,
          "426": -0.5,
          "427": -0.5,
          "428": -0.5,
          "429": -0.5,
          "430": -0.5,
          "431": -0.5,
          "432": -0.5,
          "433": -0.5,
          "434": -0.5,
          "435": -0.5,
          "436": -0.5,
          "437": -0.5,
          "438": -0.5,
          "439": 0.02941176470588236,
          "440": 0.484313725490196,
          "441": -0.3862745098039216,
          "442": -0.5,
          "443": -0.5,
          "444": -0.5,
          "445": -0.5,
          "446": -0.5,
          "447": -0.5,
          "448": -0.5,
          "449": -0.5,
          "450": -0.5,
          "451": -0.5,
          "452": -0.5,
          "453": -0.5,
          "454": -0.5,
          "455": -0.5,
          "456": -0.4176470588235294,
          "457": -0.056862745098039236,
          "458": -0.4803921568627451,
          "459": -0.5,
          "460": -0.5,
          "461": -0.5,
          "462": -0.5,
          "463": -0.5,
          "464": -0.5,
          "465": -0.5,
          "466": -0.5,
          "467": 0.23725490196078436,
          "468": 0.48039215686274506,
          "469": -0.5,
          "470": -0.5,
          "471": -0.5,
          "472": -0.5,
          "473": -0.5,
          "474": -0.5,
          "475": -0.5,
          "476": -0.5,
          "477": -0.5,
          "478": -0.5,
          "479": -0.5,
          "480": -0.5,
          "481": -0.5,
          "482": -0.5,
          "483": -0.37450980392156863,
          "484": 0.33529411764705885,
          "485": 0.06862745098039214,
          "486": -0.49215686274509807,
          "487": -0.5,
          "488": -0.5,
          "489": -0.5,
          "490": -0.5,
          "491": -0.5,
          "492": -0.5,
          "493": -0.5,
          "494": -0.48823529411764705,
          "495": 0.40980392156862744,
          "496": 0.4647058823529412,
          "497": -0.5,
          "498": -0.5,
          "499": -0.5,
          "500": -0.5,
          "501": -0.5,
          "502": -0.5,
          "503": -0.5,
          "504": -0.5,
          "505": -0.5,
          "506": -0.5,
          "507": -0.5,
          "508": -0.5,
          "509": -0.5,
          "510": -0.5,
          "511": 0.484313725490196,
          "512": 0.49607843137254903,
          "513": -0.21764705882352942,
          "514": -0.5,
          "515": -0.5,
          "516": -0.5,
          "517": -0.5,
          "518": -0.5,
          "519": -0.5,
          "520": -0.5,
          "521": -0.5,
          "522": 0.033333333333333326,
          "523": 0.49607843137254903,
          "524": -0.0019607843137254832,
          "525": -0.5,
          "526": -0.5,
          "527": -0.5,
          "528": -0.5,
          "529": -0.5,
          "530": -0.5,
          "531": -0.5,
          "532": -0.5,
          "533": -0.5,
          "534": -0.5,
          "535": -0.5,
          "536": -0.5,
          "537": -0.5,
          "538": -0.17058823529411765,
          "539": 0.49607843137254903,
          "540": 0.4607843137254902,
          "541": -0.32352941176470584,
          "542": -0.5,
          "543": -0.5,
          "544": -0.5,
          "545": -0.5,
          "546": -0.5,
          "547": -0.5,
          "548": -0.5,
          "549": -0.20588235294117646,
          "550": 0.46862745098039216,
          "551": 0.35882352941176465,
          "552": -0.3941176470588235,
          "553": -0.5,
          "554": -0.5,
          "555": -0.5,
          "556": -0.5,
          "557": -0.5,
          "558": -0.5,
          "559": -0.5,
          "560": -0.5,
          "561": -0.5,
          "562": -0.5,
          "563": -0.5,
          "564": -0.5,
          "565": -0.5,
          "566": -0.2803921568627451,
          "567": 0.49215686274509807,
          "568": 0.49607843137254903,
          "569": 0.06470588235294117,
          "570": -0.4647058823529412,
          "571": -0.49607843137254903,
          "572": -0.5,
          "573": -0.5,
          "574": -0.49607843137254903,
          "575": -0.4803921568627451,
          "576": -0.06470588235294117,
          "577": 0.4529411764705882,
          "578": 0.484313725490196,
          "579": -0.1823529411764706,
          "580": -0.5,
          "581": -0.5,
          "582": -0.5,
          "583": -0.5,
          "584": -0.5,
          "585": -0.5,
          "586": -0.5,
          "587": -0.5,
          "588": -0.5,
          "589": -0.5,
          "590": -0.5,
          "591": -0.5,
          "592": -0.5,
          "593": -0.5,
          "594": -0.5,
          "595": 0.07647058823529407,
          "596": 0.4607843137254902,
          "597": 0.49607843137254903,
          "598": 0.49607843137254903,
          "599": 0.20196078431372544,
          "600": -0.11960784313725492,
          "601": -0.16274509803921566,
          "602": 0.16274509803921566,
          "603": 0.49607843137254903,
          "604": 0.49607843137254903,
          "605": 0.4725490196078431,
          "606": -0.3784313725490196,
          "607": -0.5,
          "608": -0.5,
          "609": -0.5,
          "610": -0.5,
          "611": -0.5,
          "612": -0.5,
          "613": -0.5,
          "614": -0.5,
          "615": -0.5,
          "616": -0.5,
          "617": -0.5,
          "618": -0.5,
          "619": -0.5,
          "620": -0.5,
          "621": -0.5,
          "622": -0.5,
          "623": -0.5,
          "624": -0.19019607843137254,
          "625": 0.4607843137254902,
          "626": 0.5,
          "627": 0.5,
          "628": 0.5,
          "629": 0.5,
          "630": 0.49607843137254903,
          "631": 0.49607843137254903,
          "632": 0.4254901960784314,
          "633": -0.2372549019607843,
          "634": -0.5,
          "635": -0.5,
          "636": -0.5,
          "637": -0.5,
          "638": -0.5,
          "639": -0.5,
          "640": -0.5,
          "641": -0.5,
          "642": -0.5,
          "643": -0.5,
          "644": -0.5,
          "645": -0.5,
          "646": -0.5,
          "647": -0.5,
          "648": -0.5,
          "649": -0.5,
          "650": -0.5,
          "651": -0.5,
          "652": -0.5,
          "653": -0.32352941176470584,
          "654": 0.3274509803921568,
          "655": 0.49607843137254903,
          "656": 0.49607843137254903,
          "657": 0.3549019607843137,
          "658": 0.3313725490196079,
          "659": 0.11960784313725492,
          "660": -0.3627450980392157,
          "661": -0.5,
          "662": -0.5,
          "663": -0.5,
          "664": -0.5,
          "665": -0.5,
          "666": -0.5,
          "667": -0.5,
          "668": -0.5,
          "669": -0.5,
          "670": -0.5,
          "671": -0.5,
          "672": -0.5,
          "673": -0.5,
          "674": -0.5,
          "675": -0.5,
          "676": -0.5,
          "677": -0.5,
          "678": -0.5,
          "679": -0.5,
          "680": -0.5,
          "681": -0.5,
          "682": -0.5,
          "683": -0.5,
          "684": -0.5,
          "685": -0.5,
          "686": -0.5,
          "687": -0.5,
          "688": -0.5,
          "689": -0.5,
          "690": -0.5,
          "691": -0.5,
          "692": -0.5,
          "693": -0.5,
          "694": -0.5,
          "695": -0.5,
          "696": -0.5,
          "697": -0.5,
          "698": -0.5,
          "699": -0.5,
          "700": -0.5,
          "701": -0.5,
          "702": -0.5,
          "703": -0.5,
          "704": -0.5,
          "705": -0.5,
          "706": -0.5,
          "707": -0.5,
          "708": -0.5,
          "709": -0.5,
          "710": -0.5,
          "711": -0.5,
          "712": -0.5,
          "713": -0.5,
          "714": -0.5,
          "715": -0.5,
          "716": -0.5,
          "717": -0.5,
          "718": -0.5,
          "719": -0.5,
          "720": -0.5,
          "721": -0.5,
          "722": -0.5,
          "723": -0.5,
          "724": -0.5,
          "725": -0.5,
          "726": -0.5,
          "727": -0.5,
          "728": -0.5,
          "729": -0.5,
          "730": -0.5,
          "731": -0.5,
          "732": -0.5,
          "733": -0.5,
          "734": -0.5,
          "735": -0.5,
          "736": -0.5,
          "737": -0.5,
          "738": -0.5,
          "739": -0.5,
          "740": -0.5,
          "741": -0.5,
          "742": -0.5,
          "743": -0.5,
          "744": -0.5,
          "745": -0.5,
          "746": -0.5,
          "747": -0.5,
          "748": -0.5,
          "749": -0.5,
          "750": -0.5,
          "751": -0.5,
          "752": -0.5,
          "753": -0.5,
          "754": -0.5,
          "755": -0.5,
          "756": -0.5,
          "757": -0.5,
          "758": -0.5,
          "759": -0.5,
          "760": -0.5,
          "761": -0.5,
          "762": -0.5,
          "763": -0.5,
          "764": -0.5,
          "765": -0.5,
          "766": -0.5,
          "767": -0.5,
          "768": -0.5,
          "769": -0.5,
          "770": -0.5,
          "771": -0.5,
          "772": -0.5,
          "773": -0.5,
          "774": -0.5,
          "775": -0.5,
          "776": -0.5,
          "777": -0.5,
          "778": -0.5,
          "779": -0.5,
          "780": -0.5,
          "781": -0.5,
          "782": -0.5,
          "783": -0.5
        },
        "dw": {
          "0": 0,
          "1": 0,
          "2": 0,
          "3": 0,
          "4": 0,
          "5": 0,
          "6": 0,
          "7": 0,
          "8": 0,
          "9": 0,
          "10": 0,
          "11": 0,
          "12": 0,
          "13": 0,
          "14": 0,
          "15": 0,
          "16": 0,
          "17": 0,
          "18": 0,
          "19": 0,
          "20": 0,
          "21": 0,
          "22": 0,
          "23": 0,
          "24": 0,
          "25": 0,
          "26": 0,
          "27": 0,
          "28": 0,
          "29": 0,
          "30": 0,
          "31": 0,
          "32": 0,
          "33": 0,
          "34": 0,
          "35": 0,
          "36": 0,
          "37": 0,
          "38": 0,
          "39": 0,
          "40": 0,
          "41": 0,
          "42": 0,
          "43": 0,
          "44": 0,
          "45": 0,
          "46": 0,
          "47": 0,
          "48": 0,
          "49": 0,
          "50": 0,
          "51": 0,
          "52": 0,
          "53": 0,
          "54": 0,
          "55": 0,
          "56": 0,
          "57": 0,
          "58": 0,
          "59": 0,
          "60": 0,
          "61": 0,
          "62": 0,
          "63": 0,
          "64": 0,
          "65": 0,
          "66": 0,
          "67": 0,
          "68": 0,
          "69": 0,
          "70": 0,
          "71": 0,
          "72": 0,
          "73": 0,
          "74": 0,
          "75": 0,
          "76": 0,
          "77": 0,
          "78": 0,
          "79": 0,
          "80": 0,
          "81": 0,
          "82": 0,
          "83": 0,
          "84": 0,
          "85": 0,
          "86": 0,
          "87": 0,
          "88": 0,
          "89": 0,
          "90": 0,
          "91": 0,
          "92": 0,
          "93": 0,
          "94": 0,
          "95": 0,
          "96": 0,
          "97": 0,
          "98": 0,
          "99": 0,
          "100": 0,
          "101": 0,
          "102": 0,
          "103": 0,
          "104": 0,
          "105": 0,
          "106": 0,
          "107": 0,
          "108": 0,
          "109": 0,
          "110": 0,
          "111": 0,
          "112": 0,
          "113": 0,
          "114": 0,
          "115": 0,
          "116": 0,
          "117": 0,
          "118": 0,
          "119": 0,
          "120": 0,
          "121": 0,
          "122": 0,
          "123": 0,
          "124": 0,
          "125": 0,
          "126": 0,
          "127": 0,
          "128": 0,
          "129": 0,
          "130": 0,
          "131": 0,
          "132": 0,
          "133": 0,
          "134": 0,
          "135": 0,
          "136": 0,
          "137": 0,
          "138": 0,
          "139": 0,
          "140": 0,
          "141": 0,
          "142": 0,
          "143": 0,
          "144": 0,
          "145": 0,
          "146": 0,
          "147": 0,
          "148": 0,
          "149": 0,
          "150": 0,
          "151": 0,
          "152": 0,
          "153": 0,
          "154": 0,
          "155": 0,
          "156": 0,
          "157": 0,
          "158": 0,
          "159": 0,
          "160": 0,
          "161": 0,
          "162": 0,
          "163": 0,
          "164": 0,
          "165": 0,
          "166": 0,
          "167": 0,
          "168": 0,
          "169": 0,
          "170": 0,
          "171": 0,
          "172": 0,
          "173": 0,
          "174": 0,
          "175": 0,
          "176": 0,
          "177": 0,
          "178": 0,
          "179": 0,
          "180": 0,
          "181": 0,
          "182": 0,
          "183": 0,
          "184": 0,
          "185": 0,
          "186": 0,
          "187": 0,
          "188": 0,
          "189": 0,
          "190": 0,
          "191": 0,
          "192": 0,
          "193": 0,
          "194": 0,
          "195": 0,
          "196": 0,
          "197": 0,
          "198": 0,
          "199": 0,
          "200": 0,
          "201": 0,
          "202": 0,
          "203": 0,
          "204": 0,
          "205": 0,
          "206": 0,
          "207": 0,
          "208": 0,
          "209": 0,
          "210": 0,
          "211": 0,
          "212": 0,
          "213": 0,
          "214": 0,
          "215": 0,
          "216": 0,
          "217": 0,
          "218": 0,
          "219": 0,
          "220": 0,
          "221": 0,
          "222": 0,
          "223": 0,
          "224": 0,
          "225": 0,
          "226": 0,
          "227": 0,
          "228": 0,
          "229": 0,
          "230": 0,
          "231": 0,
          "232": 0,
          "233": 0,
          "234": 0,
          "235": 0,
          "236": 0,
          "237": 0,
          "238": 0,
          "239": 0,
          "240": 0,
          "241": 0,
          "242": 0,
          "243": 0,
          "244": 0,
          "245": 0,
          "246": 0,
          "247": 0,
          "248": 0,
          "249": 0,
          "250": 0,
          "251": 0,
          "252": 0,
          "253": 0,
          "254": 0,
          "255": 0,
          "256": 0,
          "257": 0,
          "258": 0,
          "259": 0,
          "260": 0,
          "261": 0,
          "262": 0,
          "263": 0,
          "264": 0,
          "265": 0,
          "266": 0,
          "267": 0,
          "268": 0,
          "269": 0,
          "270": 0,
          "271": 0,
          "272": 0,
          "273": 0,
          "274": 0,
          "275": 0,
          "276": 0,
          "277": 0,
          "278": 0,
          "279": 0,
          "280": 0,
          "281": 0,
          "282": 0,
          "283": 0,
          "284": 0,
          "285": 0,
          "286": 0,
          "287": 0,
          "288": 0,
          "289": 0,
          "290": 0,
          "291": 0,
          "292": 0,
          "293": 0,
          "294": 0,
          "295": 0,
          "296": 0,
          "297": 0,
          "298": 0,
          "299": 0,
          "300": 0,
          "301": 0,
          "302": 0,
          "303": 0,
          "304": 0,
          "305": 0,
          "306": 0,
          "307": 0,
          "308": 0,
          "309": 0,
          "310": 0,
          "311": 0,
          "312": 0,
          "313": 0,
          "314": 0,
          "315": 0,
          "316": 0,
          "317": 0,
          "318": 0,
          "319": 0,
          "320": 0,
          "321": 0,
          "322": 0,
          "323": 0,
          "324": 0,
          "325": 0,
          "326": 0,
          "327": 0,
          "328": 0,
          "329": 0,
          "330": 0,
          "331": 0,
          "332": 0,
          "333": 0,
          "334": 0,
          "335": 0,
          "336": 0,
          "337": 0,
          "338": 0,
          "339": 0,
          "340": 0,
          "341": 0,
          "342": 0,
          "343": 0,
          "344": 0,
          "345": 0,
          "346": 0,
          "347": 0,
          "348": 0,
          "349": 0,
          "350": 0,
          "351": 0,
          "352": 0,
          "353": 0,
          "354": 0,
          "355": 0,
          "356": 0,
          "357": 0,
          "358": 0,
          "359": 0,
          "360": 0,
          "361": 0,
          "362": 0,
          "363": 0,
          "364": 0,
          "365": 0,
          "366": 0,
          "367": 0,
          "368": 0,
          "369": 0,
          "370": 0,
          "371": 0,
          "372": 0,
          "373": 0,
          "374": 0,
          "375": 0,
          "376": 0,
          "377": 0,
          "378": 0,
          "379": 0,
          "380": 0,
          "381": 0,
          "382": 0,
          "383": 0,
          "384": 0,
          "385": 0,
          "386": 0,
          "387": 0,
          "388": 0,
          "389": 0,
          "390": 0,
          "391": 0,
          "392": 0,
          "393": 0,
          "394": 0,
          "395": 0,
          "396": 0,
          "397": 0,
          "398": 0,
          "399": 0,
          "400": 0,
          "401": 0,
          "402": 0,
          "403": 0,
          "404": 0,
          "405": 0,
          "406": 0,
          "407": 0,
          "408": 0,
          "409": 0,
          "410": 0,
          "411": 0,
          "412": 0,
          "413": 0,
          "414": 0,
          "415": 0,
          "416": 0,
          "417": 0,
          "418": 0,
          "419": 0,
          "420": 0,
          "421": 0,
          "422": 0,
          "423": 0,
          "424": 0,
          "425": 0,
          "426": 0,
          "427": 0,
          "428": 0,
          "429": 0,
          "430": 0,
          "431": 0,
          "432": 0,
          "433": 0,
          "434": 0,
          "435": 0,
          "436": 0,
          "437": 0,
          "438": 0,
          "439": 0,
          "440": 0,
          "441": 0,
          "442": 0,
          "443": 0,
          "444": 0,
          "445": 0,
          "446": 0,
          "447": 0,
          "448": 0,
          "449": 0,
          "450": 0,
          "451": 0,
          "452": 0,
          "453": 0,
          "454": 0,
          "455": 0,
          "456": 0,
          "457": 0,
          "458": 0,
          "459": 0,
          "460": 0,
          "461": 0,
          "462": 0,
          "463": 0,
          "464": 0,
          "465": 0,
          "466": 0,
          "467": 0,
          "468": 0,
          "469": 0,
          "470": 0,
          "471": 0,
          "472": 0,
          "473": 0,
          "474": 0,
          "475": 0,
          "476": 0,
          "477": 0,
          "478": 0,
          "479": 0,
          "480": 0,
          "481": 0,
          "482": 0,
          "483": 0,
          "484": 0,
          "485": 0,
          "486": 0,
          "487": 0,
          "488": 0,
          "489": 0,
          "490": 0,
          "491": 0,
          "492": 0,
          "493": 0,
          "494": 0,
          "495": 0,
          "496": 0,
          "497": 0,
          "498": 0,
          "499": 0,
          "500": 0,
          "501": 0,
          "502": 0,
          "503": 0,
          "504": 0,
          "505": 0,
          "506": 0,
          "507": 0,
          "508": 0,
          "509": 0,
          "510": 0,
          "511": 0,
          "512": 0,
          "513": 0,
          "514": 0,
          "515": 0,
          "516": 0,
          "517": 0,
          "518": 0,
          "519": 0,
          "520": 0,
          "521": 0,
          "522": 0,
          "523": 0,
          "524": 0,
          "525": 0,
          "526": 0,
          "527": 0,
          "528": 0,
          "529": 0,
          "530": 0,
          "531": 0,
          "532": 0,
          "533": 0,
          "534": 0,
          "535": 0,
          "536": 0,
          "537": 0,
          "538": 0,
          "539": 0,
          "540": 0,
          "541": 0,
          "542": 0,
          "543": 0,
          "544": 0,
          "545": 0,
          "546": 0,
          "547": 0,
          "548": 0,
          "549": 0,
          "550": 0,
          "551": 0,
          "552": 0,
          "553": 0,
          "554": 0,
          "555": 0,
          "556": 0,
          "557": 0,
          "558": 0,
          "559": 0,
          "560": 0,
          "561": 0,
          "562": 0,
          "563": 0,
          "564": 0,
          "565": 0,
          "566": 0,
          "567": 0,
          "568": 0,
          "569": 0,
          "570": 0,
          "571": 0,
          "572": 0,
          "573": 0,
          "574": 0,
          "575": 0,
          "576": 0,
          "577": 0,
          "578": 0,
          "579": 0,
          "580": 0,
          "581": 0,
          "582": 0,
          "583": 0,
          "584": 0,
          "585": 0,
          "586": 0,
          "587": 0,
          "588": 0,
          "589": 0,
          "590": 0,
          "591": 0,
          "592": 0,
          "593": 0,
          "594": 0,
          "595": 0,
          "596": 0,
          "597": 0,
          "598": 0,
          "599": 0,
          "600": 0,
          "601": 0,
          "602": 0,
          "603": 0,
          "604": 0,
          "605": 0,
          "606": 0,
          "607": 0,
          "608": 0,
          "609": 0,
          "610": 0,
          "611": 0,
          "612": 0,
          "613": 0,
          "614": 0,
          "615": 0,
          "616": 0,
          "617": 0,
          "618": 0,
          "619": 0,
          "620": 0,
          "621": 0,
          "622": 0,
          "623": 0,
          "624": 0,
          "625": 0,
          "626": 0,
          "627": 0,
          "628": 0,
          "629": 0,
          "630": 0,
          "631": 0,
          "632": 0,
          "633": 0,
          "634": 0,
          "635": 0,
          "636": 0,
          "637": 0,
          "638": 0,
          "639": 0,
          "640": 0,
          "641": 0,
          "642": 0,
          "643": 0,
          "644": 0,
          "645": 0,
          "646": 0,
          "647": 0,
          "648": 0,
          "649": 0,
          "650": 0,
          "651": 0,
          "652": 0,
          "653": 0,
          "654": 0,
          "655": 0,
          "656": 0,
          "657": 0,
          "658": 0,
          "659": 0,
          "660": 0,
          "661": 0,
          "662": 0,
          "663": 0,
          "664": 0,
          "665": 0,
          "666": 0,
          "667": 0,
          "668": 0,
          "669": 0,
          "670": 0,
          "671": 0,
          "672": 0,
          "673": 0,
          "674": 0,
          "675": 0,
          "676": 0,
          "677": 0,
          "678": 0,
          "679": 0,
          "680": 0,
          "681": 0,
          "682": 0,
          "683": 0,
          "684": 0,
          "685": 0,
          "686": 0,
          "687": 0,
          "688": 0,
          "689": 0,
          "690": 0,
          "691": 0,
          "692": 0,
          "693": 0,
          "694": 0,
          "695": 0,
          "696": 0,
          "697": 0,
          "698": 0,
          "699": 0,
          "700": 0,
          "701": 0,
          "702": 0,
          "703": 0,
          "704": 0,
          "705": 0,
          "706": 0,
          "707": 0,
          "708": 0,
          "709": 0,
          "710": 0,
          "711": 0,
          "712": 0,
          "713": 0,
          "714": 0,
          "715": 0,
          "716": 0,
          "717": 0,
          "718": 0,
          "719": 0,
          "720": 0,
          "721": 0,
          "722": 0,
          "723": 0,
          "724": 0,
          "725": 0,
          "726": 0,
          "727": 0,
          "728": 0,
          "729": 0,
          "730": 0,
          "731": 0,
          "732": 0,
          "733": 0,
          "734": 0,
          "735": 0,
          "736": 0,
          "737": 0,
          "738": 0,
          "739": 0,
          "740": 0,
          "741": 0,
          "742": 0,
          "743": 0,
          "744": 0,
          "745": 0,
          "746": 0,
          "747": 0,
          "748": 0,
          "749": 0,
          "750": 0,
          "751": 0,
          "752": 0,
          "753": 0,
          "754": 0,
          "755": 0,
          "756": 0,
          "757": 0,
          "758": 0,
          "759": 0,
          "760": 0,
          "761": 0,
          "762": 0,
          "763": 0,
          "764": 0,
          "765": 0,
          "766": 0,
          "767": 0,
          "768": 0,
          "769": 0,
          "770": 0,
          "771": 0,
          "772": 0,
          "773": 0,
          "774": 0,
          "775": 0,
          "776": 0,
          "777": 0,
          "778": 0,
          "779": 0,
          "780": 0,
          "781": 0,
          "782": 0,
          "783": 0
        }
      }
    },
    {
      "out_depth": 8,
      "sx": 5,
      "in_depth": 1,
      "in_sx": 24,
      "in_sy": 24,
      "sy": 5,
      "stride": 1,
      "pad": 2,
      "l1_decay_mul": 0,
      "l2_decay_mul": 1,
      "out_sx": 24,
      "out_sy": 24,
      "layer_type": "conv",
      "filters": [
        {
          "sx": 5,
          "sy": 5,
          "depth": 1,
          "w": {
            "0": 0.05064257356528324,
            "1": 0.2050578134579257,
            "2": 0.15640123286010016,
            "3": -0.1694446016468601,
            "4": 0.4370985061576732,
            "5": -0.48125742328661436,
            "6": 0.020354596895509613,
            "7": -0.36318171710417263,
            "8": -0.016623982121967494,
            "9": 0.27550656489838976,
            "10": -0.026040902985698455,
            "11": 0.02567877445869634,
            "12": 0.049274283719062006,
            "13": 0.1371961424567428,
            "14": 0.2537326458140121,
            "15": 0.14899956946537823,
            "16": -0.19932569964438052,
            "17": -0.1524925120139305,
            "18": 0.3594911475750098,
            "19": -0.08289837068993709,
            "20": -0.4866130006237038,
            "21": 0.03373777778570994,
            "22": 0.24298064592687357,
            "23": -0.060048898426484254,
            "24": -0.1421630450829846
          },
          "dw": {
            "0": -0.01842492844636317,
            "1": 0.02925114125277106,
            "2": 0.06319947877972956,
            "3": 0.02674992810647586,
            "4": -0.05211957502397482,
            "5": -0.023627250140599545,
            "6": 0.0223355595561132,
            "7": 0.01586911230754455,
            "8": -0.07183534832492913,
            "9": -0.07117652190345941,
            "10": -0.008143635267974526,
            "11": -0.006441379414385589,
            "12": -0.043829463231293,
            "13": -0.022435072382349062,
            "14": -0.006440252577584628,
            "15": -0.02371253038765986,
            "16": 0.025944343956136855,
            "17": 0.05284300676262098,
            "18": 0.0010895940127719468,
            "19": -0.03329851529584702,
            "20": 0.06547510892975975,
            "21": 0.10089518282681922,
            "22": 0.04656912217380593,
            "23": -0.037045439368754096,
            "24": 0.025346438740413726
          }
        },
        {
          "sx": 5,
          "sy": 5,
          "depth": 1,
          "w": {
            "0": 0.02358044414484259,
            "1": -0.07132829968952807,
            "2": 0.17850433818796355,
            "3": -0.00008570800879622166,
            "4": -0.09679528151696669,
            "5": -0.19975747472290312,
            "6": 0.09500281823149949,
            "7": -0.2509613937507283,
            "8": -0.21950479115043908,
            "9": 0.1559121615980865,
            "10": -0.1701252532977116,
            "11": 0.05989600567252162,
            "12": -0.4281841369386173,
            "13": -0.08356868818906929,
            "14": 0.1335286642884839,
            "15": -0.12790738599521037,
            "16": 0.07100919307347707,
            "17": -0.10246114360142305,
            "18": -0.10460162386047345,
            "19": -0.17077125363720372,
            "20": 0.13093394998029761,
            "21": -0.2654063710787732,
            "22": 0.10829808369109503,
            "23": 0.05452535124035602,
            "24": 0.17081979527833324
          },
          "dw": {
            "0": 0.2402131214547065,
            "1": 0.22126084597327678,
            "2": 0.1793712381205333,
            "3": 0.16397208293601945,
            "4": 0.16708976105470874,
            "5": 0.2893876658654282,
            "6": 0.2139054714010809,
            "7": 0.13788567021934006,
            "8": 0.17717820956461877,
            "9": 0.12216338797677576,
            "10": 0.32386034267746583,
            "11": 0.1897179444595669,
            "12": 0.17597640760452876,
            "13": 0.15619048062638852,
            "14": 0.12083953407689385,
            "15": 0.2895815030901356,
            "16": 0.2488177146517319,
            "17": 0.2650350674035892,
            "18": 0.16281084477006513,
            "19": 0.18087347562298906,
            "20": 0.3172325811164845,
            "21": 0.28981151644514813,
            "22": 0.16428724771624487,
            "23": 0.12937789263401758,
            "24": 0.2023624862198239
          }
        },
        {
          "sx": 5,
          "sy": 5,
          "depth": 1,
          "w": {
            "0": 0.5854315143972338,
            "1": 0.154319416651825,
            "2": 0.37462500383885045,
            "3": 0.3618518395131442,
            "4": -0.023509324768056214,
            "5": -0.10986139973157415,
            "6": -0.20478291025209883,
            "7": -0.04017891419207665,
            "8": 0.45791861145966234,
            "9": -0.046410242190470824,
            "10": -0.30960676123996095,
            "11": 0.03120874933900941,
            "12": -0.010511616072903544,
            "13": 0.26716621735423735,
            "14": -0.027304872813696323,
            "15": -0.057428216997308844,
            "16": -0.3464563092907345,
            "17": 0.1457898698880516,
            "18": 0.19691454526830038,
            "19": 0.30927964389315343,
            "20": 0.049488407976383514,
            "21": -0.16230541797591572,
            "22": -0.014667837364270495,
            "23": 0.26125639427693054,
            "24": 0.06069144871337347
          },
          "dw": {
            "0": 0.0031014854663480793,
            "1": -0.04999866815693811,
            "2": -0.046022800684610454,
            "3": -0.0027193983849162807,
            "4": 0.035827444884801454,
            "5": -0.07119644186752626,
            "6": -0.08954268106636161,
            "7": -0.027700821438797943,
            "8": 0.0006185053002261522,
            "9": -0.001922037286025218,
            "10": -0.0875016011269917,
            "11": -0.06186197040767875,
            "12": -0.024389557430794732,
            "13": -0.0531918047262127,
            "14": -0.04557472069779773,
            "15": -0.010932881642185515,
            "16": 0.008253103795775967,
            "17": -0.010955339688884777,
            "18": -0.019877094975125437,
            "19": -0.0400730603059085,
            "20": 0.02926275429626323,
            "21": 0.028268511224765508,
            "22": 0.017443404644435327,
            "23": -0.03454988860933136,
            "24": -0.09933042738716882
          }
        },
        {
          "sx": 5,
          "sy": 5,
          "depth": 1,
          "w": {
            "0": 0.4238157062570378,
            "1": -0.1532400642138044,
            "2": -0.0702204453775226,
            "3": -0.3810498373682343,
            "4": -0.2390547611848363,
            "5": -0.44098318103702727,
            "6": -0.1408536815197479,
            "7": 0.2123830295887489,
            "8": -0.23763223918777032,
            "9": -0.12624212481884964,
            "10": -0.1882114227772637,
            "11": 0.25727252887600954,
            "12": -0.20462107971137966,
            "13": -0.09485750847635396,
            "14": 0.01461536194206121,
            "15": -0.3093880580188588,
            "16": -0.04800560702879853,
            "17": 0.017744974689125448,
            "18": 0.041576495213005396,
            "19": 0.1591923698585699,
            "20": 0.030827414422295224,
            "21": 0.16257650951975824,
            "22": -0.10045655271333051,
            "23": 0.1763304863379616,
            "24": 0.07300378700929944
          },
          "dw": {
            "0": -0.049692355939625975,
            "1": -0.07126237202858761,
            "2": -0.102207632589562,
            "3": -0.09292717511203358,
            "4": -0.10284059751645755,
            "5": -0.031874618978802186,
            "6": -0.092129059186124,
            "7": -0.06082802770854803,
            "8": 0.00030353320114774834,
            "9": -0.03270898826146967,
            "10": -0.10837294821352268,
            "11": -0.042832959097346274,
            "12": 0.020871196604690233,
            "13": -0.011396881683653989,
            "14": -0.11106681863711548,
            "15": -0.017625453789019137,
            "16": 0.059283765104053976,
            "17": 0.05564117778899404,
            "18": -0.061180290669670234,
            "19": -0.09247160963409201,
            "20": 0.03636557055317131,
            "21": 0.07040173335430054,
            "22": 0.052828134316127075,
            "23": -0.057951151664566575,
            "24": -0.011598152024046435
          }
        },
        {
          "sx": 5,
          "sy": 5,
          "depth": 1,
          "w": {
            "0": -0.10235269034653806,
            "1": 0.059109922568306585,
            "2": 0.3140355027799748,
            "3": -0.2421719709002153,
            "4": 0.08939883822679019,
            "5": 0.06167002860587064,
            "6": -0.10324746371946365,
            "7": 0.2101723543069978,
            "8": 0.12575397753418738,
            "9": -0.42344768937476107,
            "10": 0.03718208300158926,
            "11": -0.045020054482753966,
            "12": -0.06814691363701102,
            "13": -0.05696663320898661,
            "14": -0.31601097762099556,
            "15": -0.2518230154677764,
            "16": -0.15949154064933602,
            "17": 0.22384693055277716,
            "18": 0.31307352739181693,
            "19": 0.13139553089765343,
            "20": 0.41314467737670246,
            "21": 0.27473920557421283,
            "22": 0.14571069440596396,
            "23": 0.018305691780555435,
            "24": 0.10998890746072575
          },
          "dw": {
            "0": 0.035732477710756445,
            "1": 0.03553023092899819,
            "2": 0.0624343083661741,
            "3": 0.01254547489867566,
            "4": -0.008816360108164516,
            "5": 0.0466219525745867,
            "6": 0.020091911861620397,
            "7": 0.01564276212647863,
            "8": -0.004632263739691564,
            "9": -0.05304769200889895,
            "10": -0.0824545415433274,
            "11": -0.049286464202301365,
            "12": -0.049793114694905376,
            "13": -0.04046359491300636,
            "14": -0.08640130265220212,
            "15": -0.11992107377497077,
            "16": -0.005225656861393729,
            "17": -0.022834734989442433,
            "18": -0.08127314113558563,
            "19": -0.13488194504827297,
            "20": 0.04091257613749853,
            "21": 0.06913617351837678,
            "22": -0.04157142096825897,
            "23": -0.16418956572995153,
            "24": -0.1557968439309677
          }
        },
        {
          "sx": 5,
          "sy": 5,
          "depth": 1,
          "w": {
            "0": 0.11731317871418745,
            "1": 0.07958991232500712,
            "2": 0.310272014980896,
            "3": -0.05782220281865659,
            "4": 0.28777676553047027,
            "5": 0.38243261224946346,
            "6": 0.3637928816862959,
            "7": 0.24008807773882107,
            "8": 0.2099354609511027,
            "9": 0.12971772601865617,
            "10": 0.06981206276490023,
            "11": 0.2890830021530588,
            "12": 0.19414662016441434,
            "13": 0.2910326429460128,
            "14": 0.012817717965574274,
            "15": -0.26448168824224155,
            "16": -0.11310116239843071,
            "17": 0.04890131913447798,
            "18": 0.05072371759099369,
            "19": -0.17853224478958069,
            "20": -0.2018009581733071,
            "21": -0.18858916773672216,
            "22": 0.1038048375258506,
            "23": -0.281908107411892,
            "24": 0.042474579778752686
          },
          "dw": {
            "0": 0.005940309724416358,
            "1": -0.01535131457882018,
            "2": -0.07586167011174638,
            "3": -0.1255964288918679,
            "4": -0.10864942837735,
            "5": 0.03361018910298252,
            "6": -0.04306486373186094,
            "7": -0.1163497846588907,
            "8": -0.04155216407259806,
            "9": 0.03410420314892632,
            "10": -0.0040635937601337935,
            "11": -0.09920199632741465,
            "12": -0.012960686781203839,
            "13": -0.0024405804754940447,
            "14": -0.013510774045442197,
            "15": -0.08183801567000962,
            "16": -0.04221057027529289,
            "17": -0.0028886802429484437,
            "18": -0.041750777503098066,
            "19": -0.09912878469903072,
            "20": -0.0052773475094111365,
            "21": 0.003998484411009648,
            "22": -0.0033698080495587895,
            "23": -0.0347621687511464,
            "24": -0.04014343192198815
          }
        },
        {
          "sx": 5,
          "sy": 5,
          "depth": 1,
          "w": {
            "0": -0.01800630749694309,
            "1": 0.04138932926244469,
            "2": 0.03144284273685314,
            "3": -0.16236354571468437,
            "4": 0.3203945365815212,
            "5": -0.09281976312841227,
            "6": -0.134790083444973,
            "7": 0.19623347454392703,
            "8": 0.14146978710411087,
            "9": 0.17271354265172195,
            "10": -0.03920563577889889,
            "11": 0.3451273983495918,
            "12": 0.025612195425922815,
            "13": 0.4491446786779652,
            "14": 0.06485768617239394,
            "15": 0.16337231428910057,
            "16": 0.43519486446853345,
            "17": 0.12237892739128721,
            "18": -0.2421261171036475,
            "19": -0.12199249378614428,
            "20": 0.2232816835797689,
            "21": 0.0025689067841017273,
            "22": -0.21007157368830537,
            "23": -0.28471758693460025,
            "24": -0.003966264858867912
          },
          "dw": {
            "0": 0.04127094435617294,
            "1": -0.009274264930983867,
            "2": -0.07655719651486888,
            "3": -0.04424767340124112,
            "4": 0.024767963308877868,
            "5": -0.05034997199905062,
            "6": -0.054605240849841814,
            "7": -0.02622290390049353,
            "8": 0.014383709548684473,
            "9": 0.05373074946670155,
            "10": 0.028212123625715325,
            "11": 0.006691166824944026,
            "12": 0.05832262902518851,
            "13": 0.04655970279684757,
            "14": 0.01850442576005568,
            "15": 0.04406062847503796,
            "16": 0.06270593507352731,
            "17": 0.06269161066760238,
            "18": 0.018006750039081462,
            "19": 0.021167771365200563,
            "20": 0.024578186795014025,
            "21": -0.019196385440427705,
            "22": -0.02964538313284945,
            "23": -0.007329398761504946,
            "24": 0.025567999702346012
          }
        },
        {
          "sx": 5,
          "sy": 5,
          "depth": 1,
          "w": {
            "0": -0.2720656348259875,
            "1": 0.07265043388216415,
            "2": -0.034560001955339086,
            "3": -0.25700290704825546,
            "4": 0.07635271783032566,
            "5": -0.07553579424477856,
            "6": -0.061387127249305645,
            "7": 0.1711416995997695,
            "8": 0.2870854805635707,
            "9": -0.06946414547398132,
            "10": -0.05771074711475963,
            "11": 0.042747331365777255,
            "12": 0.21662042434929646,
            "13": 0.47770185257325265,
            "14": 0.540502406317884,
            "15": -0.044866245407149216,
            "16": -0.287377675418366,
            "17": -0.06952216590451632,
            "18": -0.3403124691208926,
            "19": -0.07167527663614079,
            "20": 0.09122482812817763,
            "21": -0.3527043406857181,
            "22": -0.17354973781508562,
            "23": 0.10486322223053958,
            "24": 0.31596142750476297
          },
          "dw": {
            "0": 0.12170672850707871,
            "1": 0.05028921638668542,
            "2": 0.047387477769677444,
            "3": 0.04773112212296993,
            "4": 0.06743497627156732,
            "5": 0.06440427404895667,
            "6": 0.044212656844510284,
            "7": 0.04166360152038914,
            "8": 0.050857294410375745,
            "9": 0.08981296756339309,
            "10": 0.030427163960890097,
            "11": 0.017872105313218097,
            "12": 0.023659967638494837,
            "13": 0.08556011445367091,
            "14": 0.19362938491235993,
            "15": 0.03769504416729725,
            "16": 0.02850417820552284,
            "17": 0.0929365155631222,
            "18": 0.15729635710857953,
            "19": 0.19133885036453724,
            "20": 0.04020023559685127,
            "21": 0.04078860156905752,
            "22": 0.11024382696492731,
            "23": 0.10947464504073882,
            "24": 0.1491403325675138
          }
        }
      ],
      "biases": {
        "sx": 1,
        "sy": 1,
        "depth": 8,
        "w": {
          "0": 0.1465233570277708,
          "1": 0.08346308072550669,
          "2": 0.12605448636662228,
          "3": 0.060877710593421994,
          "4": 0.1621401555530822,
          "5": 0.16451006297767995,
          "6": 0.16566136327398115,
          "7": 0.11702144071246652
        },
        "dw": {
          "0": -0.3024338279141854,
          "1": -0.49811671823597325,
          "2": -0.007634032324214616,
          "3": 0.22700235636162103,
          "4": 0.3118642558307313,
          "5": -0.10783718538624949,
          "6": 0.18181498485797762,
          "7": -0.19501309094853145
        }
      },
      "in_act": {
        "sx": 28,
        "sy": 28,
        "depth": 1,
        "w": {
          "0": -0.5,
          "1": -0.5,
          "2": -0.5,
          "3": -0.5,
          "4": -0.5,
          "5": -0.5,
          "6": -0.5,
          "7": -0.5,
          "8": -0.5,
          "9": -0.5,
          "10": -0.5,
          "11": -0.5,
          "12": -0.5,
          "13": -0.5,
          "14": -0.5,
          "15": -0.5,
          "16": -0.5,
          "17": -0.5,
          "18": -0.5,
          "19": -0.5,
          "20": -0.5,
          "21": -0.5,
          "22": -0.5,
          "23": -0.5,
          "24": -0.5,
          "25": -0.5,
          "26": -0.5,
          "27": -0.5,
          "28": -0.5,
          "29": -0.5,
          "30": -0.5,
          "31": -0.5,
          "32": -0.5,
          "33": -0.5,
          "34": -0.5,
          "35": -0.5,
          "36": -0.5,
          "37": -0.5,
          "38": -0.5,
          "39": -0.5,
          "40": -0.5,
          "41": -0.5,
          "42": -0.5,
          "43": -0.5,
          "44": -0.5,
          "45": -0.5,
          "46": -0.5,
          "47": -0.5,
          "48": -0.5,
          "49": -0.5,
          "50": -0.5,
          "51": -0.5,
          "52": -0.5,
          "53": -0.5,
          "54": -0.5,
          "55": -0.5,
          "56": -0.5,
          "57": -0.5,
          "58": -0.5,
          "59": -0.5,
          "60": -0.5,
          "61": -0.5,
          "62": -0.5,
          "63": -0.5,
          "64": -0.5,
          "65": -0.5,
          "66": -0.5,
          "67": -0.5,
          "68": -0.5,
          "69": -0.5,
          "70": -0.5,
          "71": -0.5,
          "72": -0.5,
          "73": -0.5,
          "74": -0.5,
          "75": -0.5,
          "76": -0.5,
          "77": -0.5,
          "78": -0.5,
          "79": -0.5,
          "80": -0.5,
          "81": -0.5,
          "82": -0.5,
          "83": -0.5,
          "84": -0.5,
          "85": -0.5,
          "86": -0.5,
          "87": -0.5,
          "88": -0.5,
          "89": -0.5,
          "90": -0.5,
          "91": -0.5,
          "92": -0.5,
          "93": -0.5,
          "94": -0.5,
          "95": -0.5,
          "96": -0.5,
          "97": -0.5,
          "98": -0.5,
          "99": -0.5,
          "100": -0.5,
          "101": -0.5,
          "102": -0.5,
          "103": -0.5,
          "104": -0.5,
          "105": -0.5,
          "106": -0.5,
          "107": -0.5,
          "108": -0.5,
          "109": -0.5,
          "110": -0.5,
          "111": -0.5,
          "112": -0.5,
          "113": -0.5,
          "114": -0.5,
          "115": -0.5,
          "116": -0.5,
          "117": -0.5,
          "118": -0.5,
          "119": -0.5,
          "120": -0.5,
          "121": -0.5,
          "122": -0.5,
          "123": -0.5,
          "124": -0.5,
          "125": -0.5,
          "126": -0.39019607843137255,
          "127": -0.2529411764705882,
          "128": 0.09607843137254901,
          "129": 0.12352941176470589,
          "130": 0.2647058823529411,
          "131": -0.20588235294117646,
          "132": -0.5,
          "133": -0.5,
          "134": -0.5,
          "135": -0.5,
          "136": -0.5,
          "137": -0.5,
          "138": -0.5,
          "139": -0.5,
          "140": -0.5,
          "141": -0.5,
          "142": -0.5,
          "143": -0.5,
          "144": -0.5,
          "145": -0.5,
          "146": -0.5,
          "147": -0.5,
          "148": -0.5,
          "149": -0.5,
          "150": -0.5,
          "151": -0.2019607843137255,
          "152": 0.37058823529411766,
          "153": 0.37058823529411766,
          "154": 0.4254901960784314,
          "155": 0.49607843137254903,
          "156": 0.49607843137254903,
          "157": 0.49607843137254903,
          "158": 0.49607843137254903,
          "159": -0.02941176470588236,
          "160": -0.5,
          "161": -0.5,
          "162": -0.5,
          "163": -0.5,
          "164": -0.5,
          "165": -0.5,
          "166": -0.5,
          "167": -0.5,
          "168": -0.5,
          "169": -0.5,
          "170": -0.5,
          "171": -0.5,
          "172": -0.5,
          "173": -0.5,
          "174": -0.5,
          "175": -0.5,
          "176": -0.5,
          "177": -0.5,
          "178": -0.20980392156862743,
          "179": 0.4529411764705882,
          "180": 0.49607843137254903,
          "181": 0.49607843137254903,
          "182": 0.49607843137254903,
          "183": 0.49607843137254903,
          "184": 0.49607843137254903,
          "185": 0.484313725490196,
          "186": -0.10784313725490197,
          "187": -0.37450980392156863,
          "188": -0.5,
          "189": -0.5,
          "190": -0.5,
          "191": -0.5,
          "192": -0.5,
          "193": -0.5,
          "194": -0.5,
          "195": -0.5,
          "196": -0.5,
          "197": -0.5,
          "198": -0.5,
          "199": -0.5,
          "200": -0.5,
          "201": -0.5,
          "202": -0.5,
          "203": -0.5,
          "204": -0.5,
          "205": -0.4215686274509804,
          "206": 0.32352941176470584,
          "207": 0.49607843137254903,
          "208": 0.303921568627451,
          "209": -0.103921568627451,
          "210": -0.103921568627451,
          "211": -0.21764705882352942,
          "212": -0.4843137254901961,
          "213": -0.4843137254901961,
          "214": -0.5,
          "215": -0.5,
          "216": -0.5,
          "217": -0.5,
          "218": -0.5,
          "219": -0.5,
          "220": -0.5,
          "221": -0.5,
          "222": -0.5,
          "223": -0.5,
          "224": -0.5,
          "225": -0.5,
          "226": -0.5,
          "227": -0.5,
          "228": -0.5,
          "229": -0.5,
          "230": -0.5,
          "231": -0.5,
          "232": -0.48823529411764705,
          "233": 0.19019607843137254,
          "234": 0.49607843137254903,
          "235": 0.49607843137254903,
          "236": -0.07647058823529412,
          "237": -0.4019607843137255,
          "238": -0.4803921568627451,
          "239": -0.5,
          "240": -0.5,
          "241": -0.5,
          "242": -0.5,
          "243": -0.5,
          "244": -0.5,
          "245": -0.5,
          "246": -0.5,
          "247": -0.5,
          "248": -0.5,
          "249": -0.5,
          "250": -0.5,
          "251": -0.5,
          "252": -0.5,
          "253": -0.5,
          "254": -0.5,
          "255": -0.5,
          "256": -0.5,
          "257": -0.5,
          "258": -0.5,
          "259": -0.5,
          "260": -0.0019607843137254832,
          "261": 0.49607843137254903,
          "262": 0.49607843137254903,
          "263": 0.49607843137254903,
          "264": 0.49607843137254903,
          "265": 0.49607843137254903,
          "266": 0.2686274509803922,
          "267": 0.10392156862745094,
          "268": -0.21372549019607845,
          "269": -0.5,
          "270": -0.5,
          "271": -0.5,
          "272": -0.5,
          "273": -0.5,
          "274": -0.5,
          "275": -0.5,
          "276": -0.5,
          "277": -0.5,
          "278": -0.5,
          "279": -0.5,
          "280": -0.5,
          "281": -0.5,
          "282": -0.5,
          "283": -0.5,
          "284": -0.5,
          "285": -0.5,
          "286": -0.5,
          "287": -0.5,
          "288": 0.3509803921568627,
          "289": 0.49607843137254903,
          "290": 0.49607843137254903,
          "291": 0.49607843137254903,
          "292": 0.49607843137254903,
          "293": 0.49607843137254903,
          "294": 0.49607843137254903,
          "295": 0.49607843137254903,
          "296": 0.49215686274509807,
          "297": 0.16274509803921566,
          "298": -0.22156862745098038,
          "299": -0.5,
          "300": -0.5,
          "301": -0.5,
          "302": -0.5,
          "303": -0.5,
          "304": -0.5,
          "305": -0.5,
          "306": -0.5,
          "307": -0.5,
          "308": -0.5,
          "309": -0.5,
          "310": -0.5,
          "311": -0.5,
          "312": -0.5,
          "313": -0.5,
          "314": -0.5,
          "315": -0.5,
          "316": -0.033333333333333326,
          "317": 0.3156862745098039,
          "318": 0.19803921568627447,
          "319": -0.26862745098039215,
          "320": -0.33137254901960783,
          "321": -0.33137254901960783,
          "322": -0.31176470588235294,
          "323": 0.045098039215686225,
          "324": 0.4372549019607843,
          "325": 0.49607843137254903,
          "326": 0.4490196078431372,
          "327": -0.07647058823529412,
          "328": -0.5,
          "329": -0.5,
          "330": -0.5,
          "331": -0.5,
          "332": -0.5,
          "333": -0.5,
          "334": -0.5,
          "335": -0.5,
          "336": -0.5,
          "337": -0.5,
          "338": -0.5,
          "339": -0.5,
          "340": -0.5,
          "341": -0.5,
          "342": -0.5,
          "343": -0.5,
          "344": -0.5,
          "345": -0.5,
          "346": -0.5,
          "347": -0.5,
          "348": -0.5,
          "349": -0.5,
          "350": -0.5,
          "351": -0.5,
          "352": -0.33529411764705885,
          "353": 0.23333333333333328,
          "354": 0.49607843137254903,
          "355": 0.4529411764705882,
          "356": -0.21764705882352942,
          "357": -0.5,
          "358": -0.5,
          "359": -0.5,
          "360": -0.5,
          "361": -0.5,
          "362": -0.5,
          "363": -0.5,
          "364": -0.5,
          "365": -0.5,
          "366": -0.5,
          "367": -0.5,
          "368": -0.5,
          "369": -0.5,
          "370": -0.5,
          "371": -0.5,
          "372": -0.5,
          "373": -0.5,
          "374": -0.5,
          "375": -0.5,
          "376": -0.5,
          "377": -0.5,
          "378": -0.5,
          "379": -0.5,
          "380": -0.5,
          "381": -0.4607843137254902,
          "382": 0.1823529411764706,
          "383": 0.48039215686274506,
          "384": 0.4607843137254902,
          "385": -0.5,
          "386": -0.5,
          "387": -0.5,
          "388": -0.5,
          "389": -0.5,
          "390": -0.5,
          "391": -0.5,
          "392": -0.5,
